
\data\
ngram 1=3717
ngram 2=31602

\1-grams:
-3.393683	!↵	-0.2665322
-4.030505	),↵	-0.1696087
-2.573128	)↵	-0.3844793
-3.428445	+	-0.3803538
-3.905566	,\"↵	-0.1460244
-1.446551	,↵	-0.7467707
-2.349264	-↵	-2.142332
-3.808656	.)↵	-0.3731127
-4.206596	.-↵	-0.1568945
-3.206597	.\"↵	-0.5860177
-3.729475	.]↵	-0.3308135
-3.331535	._↵	-0.8651247
-1.577697	.↵	-0.9142241
-3.604537	0	-1.027663
-3.428445	0↵	-0.6471606
-4.206596	1	-0.2742749
-4.206596	1.ST	-0.1617393
-4.507627	1/2	-0.4785571
-4.206596	1/3	-0.6430281
-4.206596	1/4	-0.3376765
-4.206596	10TH	-0.1338161
-4.206596	12TH	-0.1558026
-4.206596	14TH	-0.1578282
-4.030505	15TH	-0.1529679
-4.507627	17TH	-0.6430281
-4.206596	19TH	-0.2848113
-4.206596	1S	-0.650932
-3.729475	1ST	-0.4418685
-3.662529	1↵	-0.6806903
-4.507627	2.LY	-0.167112
-4.206596	20TH	-0.1652544
-4.507627	25TH	-0.4669369
-4.507627	27TH	-0.1659069
-4.507627	28TH	-0.1647123
-3.808656	2D	-0.2648945
-4.030505	2ND	-0.1585201
-3.361499	2↵	-0.7653258
-4.030505	3	-0.3023037
-3.808656	3D	-0.5791117
-4.206596	3RD	-0.1388056
-3.428445	3↵	-0.7917064
-3.729475	4TH	-0.1129351
-3.428445	4↵	-0.5744963
-4.206596	5	-0.1776081
-4.206596	5TH	-0.1697187
-3.662529	5↵	-0.8265281
-4.030505	6	-0.3232227
-4.206596	6TH	-0.1499852
-3.428445	6↵	-0.7114841
-4.030505	7	-1.138325
-4.206596	7.TH	-0.1676926
-4.030505	7TH	-0.4725339
-3.507627	7↵	-0.640122
-4.030505	8	-0.9094884
-4.206596	8TH	-0.3300299
-3.507627	8↵	-0.7987984
-4.206596	9	-0.9626331
-3.428445	9↵	-0.7071886
-4.206596	:\"↵	-0.1695124
-1.948918	:↵	-0.7199215
-2.177213	;↵	-0.6877441
-1.32865	</s>
-99	<s>	-0.4815503
-4.507627	=MENT	-0.1755779
-2.751752	?↵	-0.5759773
-2.030505	A	-0.5924026
-3.507627	A=	-1.157008
-4.507627	ABATEMENT	-0.1709545
-4.206596	ABIDE	-0.4750314
-3.905566	ABLE	-0.7161313
-3.228873	ABOUT	-0.4261985
-3.228873	ABOVE	-0.2570761
-4.507627	ABOVE-MENTIONED	-0.1657959
-3.905566	ABOVEMENTIONED	-0.3122593
-4.206596	ABROAD	-0.1725284
-4.030505	ABSENCE	-0.1396022
-4.206596	ABSOLUTE	-0.1619773
-3.604537	ABSOLUTELY	-0.1447737
-4.507627	ABSTAIN	-0.4766486
-4.206596	ABSURDITIES	-0.1597178
-3.729475	ABUSE	-0.2961913
-4.206596	ABUSED	-0.1458501
-4.030505	AC	-0.3470868
-4.030505	AC=	-0.634129
-4.030505	ACCEDED	-0.322435
-3.729475	ACCEPT	-0.2805009
-4.030505	ACCEPTED	-0.1406326
-3.808656	ACCIDENT	-0.2450234
-3.905566	ACCIDENTAL	-0.1777566
-4.507627	ACCIDENTS	-0.7760614
-4.507627	ACCOMMODATE	-0.1775946
-4.206596	ACCOMMODATION	-0.1617253
-3.729475	ACCOMPANIED	-0.7154611
-4.206596	ACCOMPLICES	-0.1612068
-4.206596	ACCOMPLISH	-0.1694161
-4.507627	ACCOMPLISHED	-0.1558026
-4.206596	ACCORD	-0.1446718
-4.206596	ACCORD=	-0.4580378
-3.092653	ACCORDING	-1.428436
-3.331535	ACCORDINGLY	-0.2165145
-3.303507	ACCOUNT	-0.5115763
-4.507627	ACCRUED	-0.1568945
-4.206596	ACCRUES	-0.4766486
-4.206596	ACCUMULATED	-0.1463437
-4.206596	ACCUSED	-0.1444387
-4.206596	ACKNOWLEDGED	-0.1620053
-3.092653	ACT	-0.5206779
-4.030505	ACTED	-0.3483737
-3.905566	ACTING	-0.1433588
-4.030505	ACTION	-0.328072
-3.905566	ACTIONS	-0.165893
-4.030505	ACTIVE	-0.173361
-3.185407	ACTS	-0.3291762
-3.905566	ACTUAL	-0.244055
-3.662529	ACTUALLY	-0.3104773
-4.206596	ADAPT	-0.336821
-4.030505	ADAPTED	-0.4679068
-3.905566	ADD	-0.4687088
-3.905566	ADDED	-0.3889318
-4.030505	ADDING	-0.467976
-4.030505	ADDINGTON	-0.24488
-3.553384	ADDITION	-0.5072035
-3.905566	ADDITIONAL	-0.1566962
-3.905566	ADDRESS	-0.1406473
-3.662529	ADDRESSED	-0.7658114
-4.030505	ADDUCED	-0.1458501
-4.206596	ADEQUATE	-0.1570078
-4.507627	ADJACENT	-0.4739954
-4.507627	ADJOINING	-0.1359615
-4.507627	ADJUSTED	-0.1737835
-4.206596	ADMINISTERED	-0.2131858
-4.030505	ADMINISTRATION	-0.3610278
-4.030505	ADMINISTRATOR	-0.6505231
-3.905566	ADMINISTRATORS	-0.5123863
-3.905566	ADMIT	-0.3916796
-4.030505	ADMITTED	-0.2184591
-4.030505	ADMONISHED	-0.2665993
-3.905566	ADOPTED	-0.3873456
-3.905566	ADULTERER	-0.2745208
-3.905566	ADULTERESS	-0.1437093
-3.808656	ADULTERY	-0.8279641
-4.507627	ADVANCE	-0.1463437
-3.905566	ADVANCED	-0.1456176
-3.604537	ADVANTAGE	-0.3177923
-4.206596	ADVANTAGEOUS	-0.2587548
-3.905566	ADVANTAGES	-0.1535677
-4.507627	ADVERSARY	-0.1763505
-3.905566	ADVICE	-0.162467
-4.206596	ADVOCATE	-0.3379566
-4.507627	AFFAIR	-0.1403973
-4.206596	AFFECT	-0.1555328
-4.030505	AFFECTED	-0.7760614
-3.905566	AFFECTIONS	-0.1405444
-4.507627	AFFIRM	-0.1728289
-4.507627	AFFIRMATIVE	-0.1710778
-4.206596	AFFORD	-0.1733064
-3.808656	AFFORDED	-0.146126
-4.030505	AFFORDING	-0.2804146
-4.030505	AFFORDS	-0.1445552
-4.206596	AFFRONT	-0.1751979
-3.808656	AFORESAID	-0.584092
-2.916562	AFTER	-0.5096487
-3.507627	AFTERWARDS	-0.2175326
-3.466234	AGAIN	-0.236634
-2.884377	AGAINST	-0.4958659
-3.604537	AGE	-0.3471432
-3.905566	AGENT	-0.1217616
-4.030505	AGES	-0.2778209
-4.030505	AGGRAVATION	-0.1446718
-4.206596	AGGRAVATIONS	-0.4443742
-4.507627	AGO	-0.1531537
-3.808656	AGREE	-0.3974898
-3.604537	AGREED	-0.9081539
-3.507627	AGREEMENT	-0.3496113
-4.507627	AGREEMENTS	-0.4630913
-3.905566	AGREES	-0.5723633
-4.206596	AH	-0.1769324
-4.507627	AID	-0.4669369
-4.206596	AIMED	-0.4762551
-3.905566	AL=	-0.7590678
-4.206596	ALARM	-0.163598
-4.206596	ALARMED	-0.1542238
-4.206596	ALIKE	-0.1767972
-2.694713	ALL	-0.408763
-4.206596	ALLEGIANCE	-0.1703095
-4.206596	ALLOTTED	-0.2717321
-4.030505	ALLOW	-0.3519269
-3.361499	ALLOWANCE	-0.5380754
-4.030505	ALLOWANCES	-0.9521118
-3.662529	ALLOWED	-0.4973645
-4.507627	ALLY	-0.1763099
-3.553384	ALMOST	-0.1705429
-3.604537	ALONE	-0.1945772
-4.030505	ALONG	-0.3511398
-3.165204	ALREADY	-0.1707396
-3.045228	ALSO	-0.4945022
-4.206596	ALTAR	-0.1496397
-4.206596	ALTERATION	-0.1616553
-4.507627	ALTERS	-0.1669183
-3.808656	ALTHOUGH	-0.1417779
-3.361499	ALTOGETHER	-0.3050562
-3.331535	ALWAYS	-0.2746606
-3.808656	AM	-0.245507
-3.905566	AMENABLE	-0.2185391
-4.206596	AMENDMENT	-0.1651433
-3.808656	AMENDS	-0.4329901
-4.206596	AMERICA	-0.8610314
-4.206596	AMICABLE	-0.1775406
-4.206596	AMISS	-0.2779495
-3.808656	AMITY	-0.4591126
-3.228873	AMONG	-0.6058871
-3.808656	AMONGST	-0.1622991
-3.331535	AMOUNT	-0.8234283
-4.206596	AMOUNTED	-0.7697802
-4.206596	AMOUNTING	-0.4710511
-4.030505	AMPLE	-0.1685345
-4.206596	AMPUTATION	-0.1775946
-2.511991	AN	-0.5362059
-4.206596	ANCE	-0.237179
-1.874158	AND	-0.3883382
-3.808656	ANIMALS	-0.2148602
-3.905566	ANNEXED	-0.6408727
-4.206596	ANNUAL	-0.4786786
-4.507627	ANNUITIES	-0.1637654
-3.905566	ANNUITY	-0.4294659
-4.206596	ANNUM	-0.6505504
-4.206596	ANOMALITIES	-0.1447883
-3.092653	ANOTHER	-0.2033543
-3.361499	ANSWER	-0.420585
-4.507627	ANSWERABLE	-0.4533687
-4.507627	ANT	-0.1657959
-4.206596	ANTECEDENT	-0.1676788
-4.030505	ANXIOUS	-0.1515221
-2.490593	ANY	-0.5365411
-3.553384	AP	-0.8699656
-4.206596	AP=	-0.4580378
-4.206596	APART	-0.1687551
-3.808656	APHORISM	-0.1536819
-4.030505	APHORISMS	-0.1521812
-4.507627	APINATIVE	-0.1569653
-4.206596	APPARENT	-0.1769865
-4.030505	APPEAL	-0.1482983
-3.277178	APPEAR	-0.4139427
-3.662529	APPEARANCE	-0.3368893
-4.206596	APPEARANCES	-0.1539387
-3.905566	APPEARED	-0.4609026
-4.507627	APPEARING	-0.4710511
-3.507627	APPEARS	-0.4211917
-4.030505	APPELLATION	-0.2640691
-4.206596	APPENDIX	-0.1628304
-4.206596	APPLI	-0.4769605
-4.030505	APPLICABLE	-0.8666903
-3.662529	APPLICATION	-0.4481469
-3.905566	APPLIED	-0.4424131
-4.206596	APPLIES	-0.1637514
-4.507627	APPLY	-0.2839947
-3.905566	APPLYING	-0.1445843
-3.729475	APPOINT	-0.4159196
-3.331535	APPOINTED	-0.6211969
-4.206596	APPOINTING	-0.4748407
-4.507627	APPREHEND	-0.3208796
-3.905566	APPREHENSION	-0.4438917
-4.206596	APPRENTICES	-0.1637654
-4.206596	APPRIZED	-0.4669369
-4.507627	APPROACHES	-0.1565686
-4.030505	APPROPRIATED	-0.6448415
-3.905566	APPURTENANCES	-0.3427336
-3.905566	APRIL	-0.721379
-3.604537	APT	-0.7862751
-4.206596	AQUEDUCT	-0.161389
-4.030505	ARBITRARY	-0.1551632
-4.206596	ARBITRATION	-0.3340891
-4.206596	ARBITRATORS	-0.1403973
-4.030505	ARCHITECTS	-0.4655614
-4.206596	ARCHITECTURE	-0.1728289
-2.511991	ARE	-0.3023862
-3.905566	ARGUMENT	-0.1514074
-3.905566	ARISE	-0.1514074
-3.662529	ARMED	-0.3893818
-4.507627	ARMY	-0.4730663
-4.206596	ARRANGEMENT	-0.1608561
-4.206596	ARRANGEMENTS	-0.1762557
-4.206596	ARREAR	-0.3809717
-4.206596	ARRIVAL	-0.1521812
-4.030505	ARRIVED	-0.1592673
-3.662529	ART	-0.7463391
-4.507627	ART.20	-0.1558026
-4.507627	ART.6	-0.4672697
-3.361499	ARTICLE	-0.3320684
-3.553384	ARTICLES	-0.2725745
-4.030505	ARTIFICIAL	-0.1733473
-2.046729	AS	-0.7421447
-4.507627	ASCERTAIN	-0.170488
-4.206596	ASCERTAINED	-0.1521239
-3.905566	ASIDE	-0.139779
-3.808656	ASK	-0.2943108
-3.729475	ASKED	-0.2747512
-3.905566	ASKING	-0.1421444
-4.206596	ASSAULTS	-0.1652405
-4.206596	ASSEMBLAGE	-0.4669369
-4.030505	ASSEMBLY	-0.1475609
-4.206596	ASSERT	-0.174328
-4.206596	ASSERTION	-0.174328
-4.206596	ASSIGNED	-0.2488764
-4.507627	ASSIGNEE	-0.6963781
-4.030505	ASSIGNEES	-0.767953
-4.206596	ASSIS	-0.1709956
-4.507627	ASSIST	-0.285893
-3.808656	ASSISTANCE	-0.1772588
-4.030505	ASSOCIATES	-0.2886344
-4.206596	ASSUME	-0.1557458
-3.808656	ASSUMED	-0.1403826
-4.206596	ASSUMES	-0.1619633
-3.662529	ASSURANCE	-0.3393979
-4.206596	ASSURED	-0.1586471
-2.21537	AT	-0.8801653
-3.905566	ATROCIOUS	-0.1679826
-3.905566	ATTACK	-0.2587333
-4.206596	ATTACKING	-0.1640719
-3.905566	ATTEMPT	-0.2813011
-3.905566	ATTEMPTED	-0.3813132
-4.206596	ATTEMPTING	-0.4687503
-4.507627	ATTEMPTS	-0.6448415
-4.206596	ATTEND	-0.1515221
-3.662529	ATTENDED	-0.4454395
-4.206596	ATTENDING	-0.4508712
-3.662529	ATTENTION	-0.2201189
-4.206596	ATTENTIONS	-0.1746137
-4.030505	AUG	-0.3417761
-4.507627	AUGMENTED	-0.6548508
-3.905566	AUGUST	-0.5285802
-4.206596	AUSPICES	-0.1599007
-4.030505	AUTHOR	-0.3241644
-3.466234	AUTHORITY	-0.3112402
-4.206596	AUTHOR\'S	-0.1447009
-4.206596	AVAILED	-0.1769459
-4.206596	AVERAGE	-0.2742471
-4.206596	AVERSION	-0.1667937
-3.808656	AVOID	-0.1558736
-4.206596	AVOIDING	-0.1700486
-4.507627	AW	-0.3356543
-3.228873	AWAY	-0.2821532
-3.604537	B	-1.007591
-3.604537	BACK	-0.2049783
-4.507627	BACKS	-0.1574182
-3.076263	BAD	-0.4650555
-4.206596	BAG	-0.4506697
-4.507627	BANISHED	-0.5477812
-3.905566	BANK	-0.6547158
-4.206596	BAR	-0.1496397
-4.206596	BARBAROUS	-0.1697187
-4.206596	BARE	-0.1777566
-4.206596	BARRIERS	-0.171023
-3.905566	BASE	-0.1655044
-4.206596	BASIS	-0.5602391
-4.206596	BASTILE	-0.1518518
-4.507627	BATH	-0.7590395
-4.030505	BATTERSEA	-0.4579811
-2.358407	BE	-0.4471411
-4.030505	BEAR	-0.1596193
-3.905566	BEARS	-0.3021956
-4.507627	BEAT	-0.173729
-4.030505	BECAME	-0.1764724
-3.604537	BECAUSE	-0.4981965
-3.428445	BECOME	-0.2243933
-4.030505	BECOMES	-0.2407361
-3.729475	BED	-0.3298588
-4.507627	BEDDING	-0.1658514
-3.145899	BEEN	-0.3400691
-2.951324	BEFORE	-0.4503118
-4.030505	BEG	-0.4772992
-4.030505	BEGAN	-0.1293121
-3.905566	BEGIN	-0.521059
-4.206596	BEGINNING	-0.4687503
-4.206596	BEGUN	-0.1685483
-3.729475	BEHALF	-0.5766445
-4.206596	BEHAVE	-0.1673886
-4.206596	BEHAVED	-0.1565261
-3.905566	BEHAVIOUR	-0.1588163
-4.030505	BEHIND	-0.3514521
-2.681552	BEING	-0.3234115
-4.206596	BEINGS	-0.1447883
-4.206596	BELIEVE	-0.2526984
-4.206596	BELIEVING	-0.2941208
-4.206596	BELL	-0.1650043
-3.905566	BELONG	-0.3567687
-3.905566	BELONGED	-0.7697802
-3.662529	BELONGING	-0.5095054
-4.030505	BELONGS	-0.3638612
-4.030505	BEN	-0.9540817
-4.507627	BENCH	-0.4113519
-4.507627	BENEFICIAL	-0.1558026
-3.808656	BENEFIT	-0.5655148
-4.507627	BENEFITS	-0.4766486
-4.206596	BENEVOLENCE	-0.165046
-4.030505	BENT	-0.1707899
-3.604537	BENTHAM	-0.5699776
-4.030505	BENTHAM\'S	-0.2309325
-4.206596	BER	-0.4454687
-4.507627	BERY	-0.1679827
-3.604537	BESIDES	-0.4410888
-4.030505	BEST	-0.1606736
-4.206596	BETAKE	-0.1774325
-4.030505	BETRAY	-0.1567245
-3.428445	BETTER	-0.1578508
-3.303507	BETWEEN	-0.5303812
-4.030505	BEYOND	-0.1528679
-3.808656	BILLS	-0.5202388
-4.507627	BIND	-0.6481717
-3.808656	BIRTH	-0.1361843
-4.206596	BISHOPS	-0.1654489
-4.206596	BIT	-0.1706253
-4.030505	BLACK	-0.1699386
-4.507627	BLACKBERRIES	-0.4744319
-4.507627	BLACKBURN	-0.1709545
-4.206596	BLIGHT	-0.1523101
-4.206596	BLOW	-0.3491112
-4.206596	BLUSH	-0.1751979
-4.206596	BLY	-0.1600413
-4.030505	BOARD	-0.2529998
-3.808656	BOAT	-0.1464163
-4.030505	BOATS	-0.4570313
-3.905566	BODILY	-0.7798301
-3.507627	BODY	-0.3351191
-4.206596	BONA	-0.4788946
-4.507627	BONDAGE	-0.4672697
-3.604537	BOOK	-0.4483594
-4.507627	BORN	-0.4750314
-4.206596	BORROW	-0.167112
-4.206596	BOSOM	-0.1651155
-3.303507	BOTH	-0.2782567
-4.206596	BOUGHT	-0.1759847
-3.662529	BOUND	-0.5690553
-4.206596	BOYS	-0.1764453
-4.030505	BRANCH	-0.6430281
-4.206596	BRANCHES	-0.3205299
-4.030505	BREACH	-0.6430281
-4.030505	BREAD	-0.1566112
-4.206596	BREAST	-0.1622992
-4.206596	BRIDGE	-0.4630913
-4.507627	BRIGADIER	-0.4787731
-3.808656	BRING	-0.2863368
-4.206596	BRINGING	-0.1745729
-4.206596	BRINGS	-0.1564411
-4.507627	BRITAIN	-0.3422478
-3.905566	BRITISH	-0.1557316
-3.905566	BROKEN	-0.1441616
-4.206596	BROTHER	-0.3405948
-3.185407	BROUGHT	-0.410356
-4.206596	BUCK	-0.1778511
-4.206596	BUIL	-0.4769605
-3.361499	BUILDING	-0.452243
-3.553384	BUILDINGS	-0.4876894
-4.030505	BUILT	-0.467713
-4.030505	BULK	-0.9440581
-4.507627	BUONAPARTE	-0.3377605
-4.030505	BURGLARY	-0.1713793
-4.507627	BURN	-0.4720804
-4.206596	BURNING	-0.3493022
-4.206596	BURNT	-0.1555754
-4.206596	BURST	-0.1661842
-4.030505	BURTHEN	-0.3880867
-4.206596	BUSHEL	-0.1518661
-4.206596	BUSI=	-0.4580378
-3.662529	BUSINESS	-0.1761359
-2.662529	BUT	-0.4426458
-4.206596	BUTTON	-0.3537939
-4.206596	BUY	-0.1498412
-2.05126	BY	-0.6841708
-4.206596	BYSTANDER	-0.1487603
-4.030505	B\'S	-0.3024928
-3.662529	C	-1.38611
-4.206596	CAL=	-0.4580378
-3.905566	CALAMITIES	-0.2817057
-3.662529	CALAMITY	-0.3876524
-3.729475	CALCULATED	-0.2695297
-4.030505	CALCULATION	-0.2895536
-4.507627	CALCULATIONS	-0.3537399
-4.030505	CALENDAR	-0.2652036
-3.553384	CALL	-0.2662372
-3.331535	CALLED	-0.2908092
-3.662529	CALLING	-0.5396574
-4.030505	CALLS	-0.1677341
-3.808656	CAME	-0.236557
-4.507627	CAMPBEL	-0.1612629
-3.905566	CAMPBELL	-0.3162973
-4.507627	CAMPBEL\'S	-0.1776756
-2.826385	CAN	-0.510348
-4.206596	CANDIDATES	-0.337284
-3.303507	CANNOT	-0.2973342
-3.662529	CAPABLE	-0.4952489
-3.905566	CAPACITY	-0.1615151
-3.905566	CAPITAL	-0.2710475
-4.507627	CAPITULATION	-0.4739954
-4.206596	CAPTAIN	-0.7798976
-3.662529	CARE	-0.4925994
-4.206596	CAREFUL	-0.1596756
-4.030505	CAREFULLY	-0.1775541
-4.206596	CARES	-0.4687503
-4.030505	CARNAL	-0.6548778
-4.507627	CARPET	-0.1761744
-4.030505	CARRIAGE	-0.1442637
-3.662529	CARRIED	-0.4646977
-3.662529	CARRY	-0.2112397
-3.466234	CARRYING	-0.4995393
-3.145899	CASE	-0.5520296
-3.185407	CASES	-0.3102033
-4.030505	CAST	-0.1627046
-4.507627	CATALOGUE	-0.4669369
-4.206596	CATE	-0.1657265
-4.206596	CATION	-0.1539387
-4.206596	CATTLE	-0.1675406
-3.331535	CAUSE	-0.2425572
-3.808656	CAUSES	-0.1468513
-3.905566	CAUSING	-0.3383764
-4.206596	CAUTION	-0.1463437
-4.206596	CEASE	-0.4687503
-4.206596	CEED	-0.1498412
-4.507627	CEIVED	-0.4781111
-4.507627	CENT	-0.2997957
-3.206597	CERTAIN	-0.3024577
-3.507627	CERTAINLY	-0.2344144
-3.905566	CERTAINTY	-0.2197109
-4.507627	CERTIFICATE	-0.322435
-4.206596	CERTIFY	-0.1403973
-4.507627	CESSORS	-0.1579978
-3.662529	CH	-0.5963972
-4.507627	CH.15	-0.1579978
-4.206596	CHALKED	-0.1561716
-3.507627	CHANCE	-0.3326788
-3.905566	CHANGE	-0.2328269
-4.507627	CHAPEL	-0.6548374
-4.507627	CHAPLAIN	-0.8610314
-3.905566	CHAPTER	-0.2218967
-3.466234	CHARACTER	-0.3883212
-4.030505	CHARACTERISTIC	-0.1557032
-4.206596	CHARACTERIZE	-0.1732519
-3.604537	CHARGE	-0.480859
-4.206596	CHARGED	-0.1528965
-3.808656	CHARGES	-0.3874038
-4.206596	CHASTISEMENT	-0.1743008
-4.030505	CHASTITY	-0.1571635
-4.507627	CHEAPER	-0.4788001
-4.030505	CHEATING	-0.1618933
-3.729475	CHECK	-0.13226
-4.206596	CHIEF	-0.2712108
-3.662529	CHILD	-0.2493794
-3.808656	CHILDREN	-0.1434903
-3.808656	CHOICE	-0.2972382
-3.905566	CHOOSE	-0.2626087
-4.030505	CHOOSES	-0.1474018
-3.905566	CHOSEN	-0.1613469
-4.206596	CHURCH	-0.3257309
-4.206596	CIRCUITS	-0.1698012
-3.905566	CIRCULATE	-0.1263593
-3.808656	CIRCULATION	-0.2051467
-4.030505	CIRCUM	-0.3470868
-3.428445	CIRCUMSTANCE	-0.2902371
-3.905566	CIRCUMSTANCED	-0.1525819
-3.228873	CIRCUMSTANCES	-0.3020129
-4.206596	CIRCUMSTANTIAL	-0.1568095
-4.507627	CIVIL	-0.3379846
-4.507627	CIVILITY	-0.3457824
-4.030505	CIVILIZED	-0.3023037
-4.206596	CIVILLY	-0.1738243
-4.206596	CLAIMED	-0.1662397
-4.206596	CLANDESTINE	-0.1775406
-3.185407	CLASS	-0.3473279
-3.729475	CLASSES	-0.2854797
-3.662529	CLAUSE	-0.1555612
-4.206596	CLEAN	-0.3539289
-4.206596	CLEANLINESS	-0.1702546
-3.393683	CLEAR	-0.4306759
-4.206596	CLEARLY	-0.1533251
-4.206596	CLERGYMAN	-0.3395219
-4.507627	CLERK	-0.1728698
-4.206596	CLIPPINGS	-0.172091
-3.905566	CLOATHING	-0.2392156
-4.206596	CLOATHS	-0.3398009
-4.030505	CLOSE	-0.331553
-4.206596	CLOSELY	-0.1739605
-4.507627	CLOSER	-0.1778241
-4.507627	CLOTH	-0.6536071
-4.206596	CO-OFFENDERS	-0.4662705
-4.206596	COALS	-0.4630913
-4.507627	COAT	-0.1574465
-3.662529	CODE	-0.1214698
-4.206596	COERCION	-0.1621033
-3.092653	COIN	-0.6257238
-3.905566	COINAGE	-0.208165
-4.030505	COINCIDE	-0.1734019
-4.507627	COINER	-0.1472714
-4.206596	COINERS	-0.1522671
-3.604537	COINING	-0.1496166
-3.604537	COLD	-0.8266007
-4.206596	COLLATERAL	-0.1568095
-4.206596	COLLECT	-0.1687551
-3.905566	COLLECTED	-0.2531525
-4.030505	COLLINS	-0.2536122
-3.808656	COLONIES	-0.2314484
-3.662529	COLONY	-0.2144436
-4.206596	COLOUR	-0.1444387
-3.604537	COM	-0.7140551
-3.808656	COM=	-0.8559778
-3.393683	COME	-0.2715219
-3.466234	COMES	-0.2254518
-4.206596	COMFORT	-0.1463437
-4.030505	COMFORTS	-0.1454577
-3.808656	COMING	-0.1958815
-4.030505	COMMAND	-0.143198
-4.030505	COMMANDING	-0.1519234
-4.206596	COMMENCE	-0.1736064
-4.030505	COMMENCEMENT	-0.4084929
-4.206596	COMMENSURATE	-0.1596756
-4.507627	COMMENTARIES	-0.1715299
-4.206596	COMMIS	-0.4769605
-4.507627	COMMISSARY	-0.1663228
-4.206596	COMMISSI	-0.4769605
-4.030505	COMMISSION	-0.1662535
-3.905566	COMMISSIONERS	-0.4773594
-3.808656	COMMIT	-0.2680198
-4.206596	COMMITS	-0.1700211
-3.228873	COMMITTED	-0.3502356
-4.206596	COMMITTEE	-0.3257309
-4.206596	COMMITTING	-0.348483
-3.393683	COMMON	-0.3016169
-3.662529	COMMONLY	-0.1933555
-4.507627	COMMONS	-0.3886557
-4.030505	COMMOTIONS	-0.1751707
-4.206596	COMMUNICATE	-0.1772028
-4.206596	COMMUNICATING	-0.1463437
-4.206596	COMMUNICATION	-0.3358091
-4.030505	COMMUNITY	-0.3389955
-4.507627	COMPA=	-0.4580378
-4.030505	COMPACTS	-0.3374663
-4.206596	COMPANIED	-0.3474843
-4.030505	COMPARATIVE	-0.3787008
-4.206596	COMPARED	-0.1635841
-4.206596	COMPASS	-0.4629513
-4.206596	COMPASSED	-0.1539101
-4.206596	COMPASSION	-0.1515221
-4.206596	COMPEL	-0.1697049
-3.905566	COMPELLED	-0.2835012
-3.662529	COMPENSATION	-0.1255077
-3.905566	COMPETENT	-0.2844173
-4.206596	COMPLAIN	-0.1539387
-4.030505	COMPLAINED	-0.1372081
-4.030505	COMPLAINTS	-0.1384807
-3.729475	COMPLEAT	-0.2357357
-4.030505	COMPLEATLY	-0.1544802
-4.206596	COMPLETE	-0.1569512
-4.030505	COMPLETELY	-0.1570078
-4.206596	COMPLICATED	-0.1703507
-4.206596	COMPOSE	-0.1669183
-3.808656	COMPOSITION	-0.2362468
-4.206596	COMPREHEND	-0.1487892
-4.206596	COMPRISED	-0.150819
-4.507627	COMPU	-0.4769605
-4.030505	COMPULSION	-0.1565686
-3.905566	COMPUTATION	-0.225525
-4.507627	COMPUTED	-0.4687503
-3.466234	CON	-0.8187904
-3.662529	CON=	-1.157008
-4.206596	CONCEALED	-0.1743144
-4.206596	CONCEALMENT	-0.1444387
-3.729475	CONCEIVE	-0.3540044
-3.905566	CONCEPTION	-0.2431521
-3.729475	CONCERN	-0.2011063
-3.466234	CONCERNED	-0.6072057
-3.466234	CONCERNING	-0.3735414
-3.808656	CONCERNS	-0.1295233
-4.206596	CONCLUDE	-0.1487603
-4.507627	CONCLUDED	-0.4730663
-3.905566	CONCLUSION	-0.1351582
-4.507627	CONCLUSIVE	-0.1569512
-4.206596	CONCLUSIVELY	-0.1546368
-4.030505	CONCUR	-0.1638211
-4.507627	CONCURRENCE	-0.7679669
-3.662529	CONDITION	-0.3013083
-3.662529	CONDITIONS	-0.2900907
-3.428445	CONDUCT	-0.552111
-4.030505	CONFEDERACY	-0.1371191
-4.206596	CONFEDERATES	-0.1611927
-4.507627	CONFESSED	-0.4630913
-4.206596	CONFINE	-0.1660317
-4.206596	CONFINE=	-0.4580378
-3.604537	CONFINED	-0.6035566
-3.428445	CONFINEMENT	-0.1965564
-3.905566	CONFINING	-0.6947783
-4.206596	CONFLAGRATION	-0.1621033
-3.905566	CONFOUNDED	-0.3843017
-4.206596	CONFUSION	-0.4730663
-4.507627	CONJUGAL	-0.1569512
-4.206596	CONJUGATE	-0.1677203
-3.905566	CONNECTED	-0.3793942
-4.206596	CONQUERED	-0.1568379
-3.662529	CONSCIOUS	-0.3853289
-3.905566	CONSCIOUSNESS	-0.1292819
-3.507627	CONSENT	-0.3944783
-4.206596	CONSENTED	-0.1463437
-3.729475	CONSEQUENCE	-0.4136516
-3.808656	CONSEQUENCES	-0.2325295
-4.206596	CONSEQUENTIAL	-0.4787596
-4.206596	CONSEQUENTLY	-0.1569512
-4.206596	CONSI	-0.3470868
-4.030505	CONSIDER	-0.3461398
-4.206596	CONSIDERA	-0.6530517
-3.905566	CONSIDERABLE	-0.2647894
-3.507627	CONSIDERATION	-0.4804763
-3.729475	CONSIDERATIONS	-0.3256445
-3.808656	CONSIDERED	-0.3294306
-3.729475	CONSIDERING	-0.4647256
-3.905566	CONSIGNED	-0.2999057
-4.206596	CONSISTED	-0.4710511
-3.905566	CONSISTENT	-0.7773529
-4.206596	CONSPIRACY	-0.1496397
-3.905566	CONSTANT	-0.2696842
-3.662529	CONSTANTLY	-0.350723
-4.030505	CONSTITUTE	-0.4508712
-4.206596	CONSTITUTED	-0.1616413
-4.206596	CONSTITUTES	-0.2611908
-4.030505	CONSTRUCTION	-0.2365711
-3.808656	CONSUMED	-0.209428
-3.905566	CONTAIN	-0.1587176
-4.030505	CONTAINED	-0.3704214
-4.030505	CONTAINING	-0.2915663
-4.507627	CONTAINS	-0.1554475
-4.206596	CONTEMPLATION	-0.1700348
-3.604537	CONTEMPT	-0.4690008
-4.030505	CONTENT	-0.1671812
-4.206596	CONTENTS	-0.3817495
-4.507627	CONTIGUOUS	-0.4744319
-4.206596	CONTINUAL	-0.3328866
-4.206596	CONTINUALLY	-0.1700211
-4.507627	CONTINUANCE	-0.6430281
-3.662529	CONTINUE	-0.6865944
-4.206596	CONTINUED	-0.2817057
-4.206596	CONTINUES	-0.1769865
-3.604537	CONTRACT	-0.4995167
-4.030505	CONTRACTED	-0.3335378
-4.206596	CONTRACTING	-0.3493841
-3.905566	CONTRACTS	-0.3322345
-4.206596	CONTRARY	-0.3088466
-4.206596	CONTRI	-0.4769605
-4.030505	CONTRIBUTE	-0.7658114
-4.206596	CONTRIBUTES	-0.1699936
-4.030505	CONTRIVANCE	-0.1406473
-4.030505	CONTRIVED	-0.4703498
-4.507627	CONTROL	-0.4669369
-4.206596	CONTROUL	-0.3257309
-3.808656	CONVENIENT	-0.2861876
-4.030505	CONVENTION	-0.1575172
-4.030505	CONVERSATION	-0.1670567
-4.206596	CONVERSE	-0.1732928
-3.905566	CONVERT	-0.2383945
-4.206596	CONVERTING	-0.3490976
-4.206596	CONVEYANCE	-0.1763234
-4.030505	CONVEYED	-0.3432448
-3.553384	CONVICT	-0.1213776
-3.729475	CONVICTED	-0.5121738
-3.729475	CONVICTION	-0.4622274
-3.228873	CONVICTS	-0.4764945
-4.507627	COPIED	-0.6300178
-4.030505	COPPER	-0.4506409
-3.905566	CORN	-0.4708862
-4.030505	CORPORAL	-0.3784457
-4.206596	CORPORATION	-0.1619913
-4.507627	CORRECTING	-0.1728289
-4.206596	CORRESPONDENCE	-0.1750757
-4.030505	CORROBORATE	-0.1690031
-4.206596	CORRUPTED	-0.139499
-4.030505	CORRUPTION	-0.3257309
-4.030505	COST	-0.2628862
-3.905566	COSTS	-0.38606
-2.939425	COULD	-0.4227904
-3.507627	COUNTERFEIT	-0.3855553
-4.030505	COUNTERFEITS	-0.1576869
-3.905566	COUNTIES	-0.2096021
-4.206596	COUNTRIES	-0.3260764
-3.428445	COUNTRY	-0.3293502
-3.905566	COUNTY	-0.3485732
-4.206596	COUPLE	-0.1653378
-3.553384	COURSE	-0.3467145
-3.808656	COURT	-0.4487666
-4.206596	COVENANT	-0.3512892
-4.206596	COVER	-0.1726377
-4.206596	COVERED	-0.1566253
-4.206596	COVERING	-0.17513
-4.206596	COVERS	-0.1567387
-4.206596	CREASE	-0.173838
-4.030505	CREATED	-0.3493159
-4.206596	CREATOR	-0.2736413
-4.206596	CREATURE	-0.3330708
-4.206596	CREATURES	-0.1754965
-4.206596	CREDITOR	-0.2946711
-4.206596	CREDITORS	-0.9458715
-4.206596	CREWS	-0.1629281
-3.905566	CRIME	-0.09739672
-3.393683	CRIMES	-0.2476074
-3.331535	CRIMINAL	-0.2910417
-4.206596	CRIMINALLY	-0.1397642
-4.507627	CROP	-0.4672697
-3.905566	CROPS	-0.1160736
-4.206596	CROWD	-0.1580825
-3.905566	CROWDED	-0.1665029
-4.030505	CROWDING	-0.1559588
-4.030505	CROWN	-0.3899653
-4.206596	CRUELTY	-0.1596615
-4.206596	CRUSHING	-0.1740014
-4.507627	CULATED	-0.4687503
-4.030505	CULPABLE	-0.383462
-4.206596	CULTURE	-0.4669369
-4.030505	CURE	-0.2522694
-4.206596	CURED	-0.1539101
-4.206596	CURING	-0.1656432
-4.206596	CURIOUS	-0.1690031
-4.507627	CURITY	-0.1619213
-3.905566	CURRENCY	-0.1641833
-3.662529	CURRENT	-0.3874087
-3.729475	CUSTODY	-0.34338
-3.808656	CUSTOM	-0.3609938
-4.206596	CUSTOMARY	-0.4533687
-4.206596	CUSTOMS	-0.2714856
-3.808656	CUT	-0.3777365
-4.030505	CUTTING	-0.1358723
-3.905566	D	-0.8141008
-3.466234	DAMAGE	-0.3408656
-4.507627	DAMAGEABLE	-0.4750314
-4.030505	DAMNIFIED	-0.5559801
-3.553384	DANGER	-0.398654
-3.905566	DANGEROUS	-0.1462712
-4.030505	DANGERS	-0.343231
-4.507627	DARE	-0.1762015
-3.905566	DATE	-0.1727083
-3.905566	DATED	-0.5165784
-4.206596	DAUNCING	-0.1762557
-3.165204	DAY	-0.3994838
-3.466234	DAYS	-0.2731162
-4.206596	DAY\'S	-0.1776756
-3.662529	DE	-0.3470046
-4.030505	DE=	-0.634129
-3.905566	DEAL	-0.3661253
-4.206596	DEALINGS	-0.1736336
-3.662529	DEATH	-0.3250215
-3.905566	DEATHS	-0.3017967
-4.206596	DEBARRED	-0.1687551
-4.206596	DEBENTURES	-0.1569653
-4.206596	DEBILITY	-0.1769054
-4.030505	DEBTOR	-0.4679206
-4.030505	DEBTORS	-0.120516
-4.030505	DECEASE	-0.8128621
-4.030505	DECEIT	-0.1751436
-4.206596	DECEMBER	-0.478368
-3.905566	DECISION	-0.137534
-4.030505	DECISIONS	-0.1365704
-4.030505	DECLARATION	-0.331553
-3.466234	DECLARED	-0.3765118
-4.206596	DECLARES	-0.1660733
-4.206596	DECR	-0.3417761
-4.030505	DECREES	-0.155547
-4.507627	DEDUCTED	-0.1639187
-4.206596	DEDUCTING	-0.4785165
-4.030505	DEDUCTION	-0.1735382
-4.206596	DEDUCTIONS	-0.2182821
-4.206596	DEED	-0.1638211
-4.206596	DEEM	-0.1718858
-4.030505	DEEMED	-0.2984474
-3.729475	DEFAMATION	-0.1332332
-4.030505	DEFAULT	-0.7439992
-4.507627	DEFEATED	-0.7760614
-3.905566	DEFEATING	-0.1672088
-4.030505	DEFENCE	-0.2336584
-4.507627	DEFENDER	-0.4669369
-4.507627	DEFENDING	-0.1563276
-4.206596	DEFERENCE	-0.6448415
-4.206596	DEFINE	-0.1527821
-4.030505	DEFINED	-0.2271183
-3.729475	DEFINITION	-0.2644842
-4.206596	DEFINITIONS	-0.1616833
-3.808656	DEFRAUDMENT	-0.6505731
-2.989113	DEGREE	-0.4919434
-4.030505	DEGREES	-0.6430281
-4.206596	DELAY	-0.3508545
-3.905566	DELINQUENCY	-0.1484572
-4.507627	DELIVER	-0.234207
-3.553384	DELIVERED	-0.4172747
-4.206596	DELIVERING	-0.1734564
-4.206596	DELIVERY	-0.4669369
-3.808656	DEMAND	-0.2727167
-4.206596	DEMANDED	-0.348647
-4.507627	DEMONSTRATION	-0.1403973
-4.507627	DENIES	-0.4750314
-4.206596	DENY	-0.2910397
-4.206596	DEPART	-0.295852
-4.030505	DEPARTMENT	-0.3630984
-4.507627	DEPARTS	-0.4672697
-4.030505	DEPARTURE	-0.1481682
-3.662529	DEPEND	-0.3657582
-4.206596	DEPENDED	-0.1552628
-3.905566	DEPENDENT	-0.1401324
-3.808656	DEPENDS	-0.5532027
-4.206596	DEPOSITED	-0.1673886
-4.507627	DEPRIVE	-0.7731104
-4.030505	DEPRIVED	-0.4629513
-3.808656	DEPUTY	-0.4475043
-4.206596	DER	-0.1695261
-4.507627	DERATION	-0.4669369
-4.030505	DERIVED	-0.2960988
-4.507627	DERIVES	-0.478422
-3.808656	DESCRIBED	-0.188647
-3.662529	DESCRIPTION	-0.193998
-4.030505	DESCRIPTIONS	-0.1601819
-4.206596	DESERTED	-0.3002181
-4.507627	DESERTER	-0.1608841
-3.905566	DESIGN	-0.142159
-4.507627	DESIGNATION	-0.4669369
-4.030505	DESIGNED	-0.5611055
-4.206596	DESIGNS	-0.1444387
-3.808656	DESIRE	-0.3095188
-4.206596	DESIRED	-0.1733746
-4.206596	DESIRES	-0.1742872
-4.030505	DESIRING	-0.1504741
-4.206596	DESIROUS	-0.4669369
-4.507627	DESTINED	-0.4687503
-4.206596	DESTROY	-0.173211
-4.206596	DESTROY=	-0.4580378
-4.030505	DESTROYED	-0.2949873
-4.206596	DESTROYING	-0.1694849
-4.206596	DESTROYS	-0.167112
-4.030505	DESTRUCTION	-0.2744581
-4.206596	DETAIL	-0.4599169
-4.206596	DETAILS	-0.1607718
-4.206596	DETAINED	-0.1622572
-4.206596	DETECTED	-0.3300014
-3.905566	DETER	-0.2787775
-4.206596	DETERMINABLE	-0.2967151
-3.905566	DETERMINATION	-0.2236053
-4.206596	DETERMINE	-0.1345026
-3.553384	DETERMINED	-0.4435088
-4.507627	DEVASTATION	-0.4622228
-4.206596	DEVIATION	-0.4630913
-4.030505	DEVISEE	-1.0185
-4.206596	DEVISEES	-0.569824
-3.905566	DICE	-0.143388
-4.507627	DICIAL	-0.1773515
-4.030505	DICTATED	-0.1668491
-3.361499	DID	-0.3547977
-3.553384	DIE	-0.1850283
-4.030505	DIED	-0.2567638
-4.206596	DIES	-0.3305714
-4.206596	DIF	-0.1709956
-4.206596	DIFFE=	-0.4580378
-3.553384	DIFFERENCE	-0.3077746
-3.604537	DIFFERENCES	-0.2534806
-3.252354	DIFFERENT	-0.2344112
-4.206596	DIFFERS	-0.6527399
-3.808656	DIFFICULT	-0.4431011
-3.905566	DIFFICULTIES	-0.1563985
-3.905566	DIFFICULTY	-0.2343475
-4.206596	DIG	-0.1620333
-3.905566	DILIGENCE	-0.1556748
-3.808656	DIMENSIONS	-0.3749738
-3.808656	DIMINISHED	-0.149193
-4.206596	DIMINUTION	-0.1578282
-4.206596	DINARY	-0.156597
-4.206596	DING	-0.1727743
-3.466234	DIRECT	-0.4639693
-3.553384	DIRECTED	-0.3569644
-3.808656	DIRECTION	-0.3317841
-3.662529	DIRECTIONS	-0.3903711
-3.662529	DIRECTLY	-0.220857
-3.905566	DIS	-0.4720256
-3.905566	DIS=	-0.8559778
-4.206596	DISABLED	-0.172583
-4.206596	DISAPPOINTMENT	-0.1638211
-4.206596	DISCHARGE	-0.6937077
-4.030505	DISCHARGED	-0.4642932
-3.905566	DISCIPLINE	-0.1346218
-3.729475	DISCOURSE	-0.2154472
-4.507627	DISCOURSES	-0.1496397
-3.905566	DISCOVER	-0.1267845
-3.808656	DISCOVERED	-0.1569511
-4.030505	DISCOVERY	-0.1578282
-4.206596	DISCREET	-0.3325607
-3.905566	DISCRETION	-0.2514898
-4.206596	DISEASE	-0.1592673
-4.030505	DISGRACE	-0.1595771
-4.206596	DISGUISES	-0.4783544
-4.030505	DISHONEST	-0.156937
-4.206596	DISMISS	-0.1702958
-4.507627	DISOBEDIENCE	-0.1619073
-4.030505	DISPENSING	-0.9556513
-4.206596	DISPLAYED	-0.1737699
-4.206596	DISPLEASURE	-0.1662119
-4.507627	DISPOSAL	-0.4669369
-4.030505	DISPOSE	-0.7464986
-3.905566	DISPOSED	-0.4454687
-3.808656	DISPOSITION	-0.1397201
-4.206596	DISPROPORTION	-0.1578282
-3.808656	DISPUTE	-0.2285904
-4.206596	DISRESPECTFULLY	-0.4669369
-4.206596	DISSIPATION	-0.13783
-3.905566	DISTANCE	-0.1264201
-3.808656	DISTANT	-0.1561432
-3.905566	DISTINCT	-0.3935019
-3.808656	DISTINCTION	-0.1507184
-3.729475	DISTINCTIONS	-0.1235699
-4.206596	DISTINCTIVE	-0.1778511
-4.030505	DISTINGUISH	-0.227364
-4.030505	DISTINGUISHABLE	-0.1545941
-3.662529	DISTINGUISHED	-0.3173703
-4.206596	DISTINGUISHING	-0.155689
-3.905566	DISTRESS	-0.1440303
-3.808656	DISTRICT	-0.2422804
-3.808656	DISTURBANCE	-0.3912064
-4.206596	DISTURBING	-0.1669183
-4.206596	DITTO	-0.4672697
-4.206596	DIVERS	-0.5828066
-4.206596	DIVIDED	-0.177365
-4.206596	DIVINE	-0.554792
-3.905566	DIVISION	-0.2388785
-4.206596	DIVISIONS	-0.1621033
-3.145899	DO	-0.3483942
-4.206596	DO=	-0.4580378
-4.030505	DOCTRINE	-0.1562142
-4.507627	DOCUMENT	-0.1545371
-4.030505	DOCUMENTS	-0.1772163
-3.228873	DOES	-0.5502557
-4.030505	DOG	-0.2750102
-3.466234	DOING	-0.2337168
-4.206596	DOM	-0.1761473
-3.507627	DOMESTIC	-0.2851156
-4.030505	DOMINION	-0.1465469
-4.507627	DOMINIONS	-0.6430281
-3.185407	DONE	-0.5436783
-4.507627	DOOR	-0.1638211
-4.206596	DOTH	-0.4788811
-3.905566	DOUBLE	-0.4720119
-3.604537	DOUBT	-0.2214679
-3.729475	DOWN	-0.2417341
-4.206596	DOZEN	-0.1733201
-3.808656	DR	-0.5639023
-4.507627	DRAW	-0.1669183
-4.206596	DRAWBACK	-0.1697462
-4.206596	DRAWING	-0.1617953
-3.808656	DRAWN	-0.1511491
-4.206596	DRIVE	-0.1764453
-4.030505	DRIVING	-0.3526313
-4.206596	DRYING	-0.1734564
-3.604537	DUE	-0.2959261
-3.905566	DUKE	-0.4655029
-4.507627	DULENT	-0.1777161
-4.030505	DULY	-0.5755751
-4.206596	DURA	-0.4580378
-4.206596	DURATION	-0.1558026
-3.145899	DURING	-0.7976362
-4.206596	DUTIES	-0.1444387
-3.553384	DUTY	-0.3436104
-4.030505	DWELLING	-0.1315849
-4.206596	DYING	-0.3419704
-3.729475	E	-0.8736109
-3.277178	EACH	-0.4172437
-4.507627	EAR	-0.1772434
-4.030505	EARLY	-0.152353
-4.507627	EARN	-0.4781652
-4.507627	EARNINGS	-0.1463437
-4.206596	EASE	-0.1759983
-3.905566	EASILY	-0.1512926
-4.206596	EASY	-0.3398427
-4.507627	ECONOMICAL	-0.3327308
-4.030505	ECONOMY	-0.2678283
-3.905566	ED	-0.3017587
-4.030505	EF=	-0.634129
-3.393683	EFFECT	-0.2698701
-4.507627	EFFECTED	-0.3396056
-4.507627	EFFECTIVE	-0.47853
-3.507627	EFFECTS	-0.2761573
-3.729475	EFFECTUAL	-0.1476478
-3.604537	EFFECTUALLY	-0.274709
-4.507627	EFFECTUATING	-0.4669369
-3.808656	EFFICACY	-0.4578112
-4.030505	EI	-0.1729244
-4.030505	EI=	-0.634129
-4.206596	EIGHT	-0.1776351
-2.894843	EITHER	-0.3935995
-4.206596	ELIGIBLE	-0.4787866
-3.393683	ELSE	-0.2428257
-4.206596	ELSEWHERE	-0.1690444
-3.905566	EM	-0.8749005
-4.206596	EM=	-0.4580378
-4.030505	EMBEZZLED	-0.4705148
-3.729475	EMBEZZLEMENT	-0.6342961
-4.206596	EMBRACED	-0.1508764
-3.905566	EMPLOY	-0.2887264
-3.466234	EMPLOYED	-0.156239
-3.905566	EMPLOYING	-0.3959334
-3.905566	EMPLOYMENT	-0.5475796
-3.905566	EN	-0.3870892
-4.030505	ENABLE	-0.4766757
-4.206596	ENABLED	-0.5131727
-4.030505	ENACTED	-0.3863662
-4.206596	ENCE	-0.2303226
-4.206596	ENCOURAGEMENT	-0.239318
-4.206596	ENCREASE	-0.4669369
-4.030505	ENCREASED	-0.384036
-4.030505	ENCREASING	-0.4576695
-3.604537	END	-0.5386361
-4.507627	ENDAMAGEMENT	-0.3208796
-4.507627	ENDANGER	-0.3470183
-4.507627	ENDANGERED	-0.4630913
-4.206596	ENDEAVOURING	-0.4687503
-4.206596	ENDEAVOURS	-0.4687503
-4.030505	ENEMIES	-0.3832798
-4.030505	ENEMY	-0.3408453
-4.507627	ENERGY	-0.2665847
-3.808656	ENGAGE	-0.2910329
-4.030505	ENGAGED	-0.3357669
-3.905566	ENGAGEMENT	-0.1500283
-3.905566	ENGAGEMENTS	-0.3568878
-3.905566	ENGAGING	-0.2347548
-4.507627	ENGINE	-0.4765536
-3.662529	ENGLAND	-0.3322686
-3.808656	ENGLISH	-0.2279011
-4.206596	ENGLISHMAN	-0.3300014
-3.729475	ENHANCEMENT	-0.3257878
-4.030505	ENJOINED	-0.2841215
-4.206596	ENJOYED	-0.6511226
-4.206596	ENJOYING	-0.3425942
-4.507627	ENLIST	-0.1694573
-4.030505	ENMITY	-0.2621468
-3.428445	ENOUGH	-0.3967505
-4.030505	ENQUIRY	-0.1712971
-4.030505	ENSUE	-0.1218077
-4.507627	ENSURING	-0.1565828
-4.030505	ENTER	-0.4765944
-4.030505	ENTERED	-0.3524553
-4.206596	ENTERING	-0.1542238
-4.507627	ENTERTAIN	-0.3381526
-4.030505	ENTERTAINED	-0.3383904
-4.030505	ENTIRE	-0.1578141
-4.206596	ENTIRELY	-0.1765671
-3.905566	ENTITLED	-0.6231892
-3.604537	EQUAL	-0.3242971
-3.604537	EQUALLY	-0.2920508
-4.030505	EQUIVALENT	-0.1635283
-4.206596	ER	-0.2474416
-4.206596	ERE	-0.1566253
-4.507627	ERECT	-0.1508764
-4.030505	ERECTED	-0.2347938
-4.030505	ERECTING	-0.3893528
-4.507627	ERECTION	-0.3205299
-3.808656	ERR	-0.4385492
-4.206596	ERRING	-0.1748447
-4.206596	ERROR	-0.1739061
-4.206596	ES	-0.1568237
-3.729475	ESCAPE	-0.4544407
-3.604537	ESPECIALLY	-0.2148597
-4.206596	ESQ	-0.337284
-4.507627	ESQUIRE	-0.3260764
-4.030505	ESSENTIAL	-0.322435
-4.030505	EST	-0.1776891
-3.905566	ESTABLISH	-0.3230295
-3.604537	ESTABLISHED	-0.1574974
-3.507627	ESTABLISHMENT	-0.4437084
-3.729475	ESTATE	-0.5023723
-4.206596	ESTI	-0.4769605
-3.729475	ESTIMATE	-0.2361718
-4.030505	ESTIMATED	-0.3350768
-4.507627	ESTIMATES	-0.4782463
-4.206596	ESTIMATION	-0.1539387
-4.206596	ETC	-0.1539387
-3.016265	EVEN	-0.3264648
-4.030505	EVENT	-0.4493283
-4.030505	EVENTS	-0.1222527
-4.507627	EVENTUAL	-0.1777566
-3.905566	EVENTUALLY	-0.1525533
-3.127415	EVER	-0.3079764
-2.864174	EVERY	-0.5538765
-3.361499	EVIDENCE	-0.3910556
-4.507627	EVIDENT	-0.3023848
-4.206596	EVIDENTIARY	-0.1497405
-4.030505	EVIDENTLY	-0.17654
-4.206596	EVIL	-0.1661842
-3.662529	EX	-0.7570241
-3.905566	EX=	-0.7590678
-3.729475	EXACTLY	-0.1677755
-3.905566	EXAMINATION	-0.2241345
-4.507627	EXAMINE	-0.1735518
-3.808656	EXAMINED	-0.1996113
-4.206596	EXAMINING	-0.1681069
-3.729475	EXAMPLE	-0.2923732
-4.206596	EXCEED	-0.8242491
-4.030505	EXCEEDING	-0.421899
-3.808656	EXCEPT	-0.3781814
-4.030505	EXCEPTED	-0.4024885
-3.808656	EXCEPTION	-0.2239259
-4.030505	EXCHANGE	-0.1492363
-4.030505	EXCITE	-0.3248516
-4.206596	EXCLUDE	-0.1767972
-4.206596	EXCLUDING	-0.1770406
-4.507627	EXCLUSION	-0.1711738
-3.905566	EXCLUSIVE	-0.6885067
-3.604537	EXCUSE	-0.2060825
-4.206596	EXCUSED	-0.3358091
-3.808656	EXCUSES	-0.5533165
-3.729475	EXECUTED	-0.2431386
-3.604537	EXECUTION	-0.3875249
-4.507627	EXECUTOR	-0.6505231
-4.030505	EXECUTORS	-0.3927354
-4.507627	EXEMPLIFIED	-0.4764994
-4.206596	EXEMPT	-0.3515607
-3.729475	EXERCISE	-0.6456833
-3.808656	EXERCISED	-0.4467348
-4.206596	EXERT	-0.1750078
-4.507627	EXERTED	-0.1569087
-3.905566	EXERTIONS	-0.1233863
-4.206596	EXHAUSTIVE	-0.1661842
-4.206596	EXHI	-0.1709956
-4.206596	EXHIBIT	-0.1669183
-4.030505	EXHIBITED	-0.1396316
-4.206596	EXHIBITING	-0.509432
-4.507627	EXHILERATING	-0.1569087
-4.206596	EXIGENCY	-0.1696499
-4.206596	EXIST	-0.1560014
-3.808656	EXISTENCE	-0.2329606
-3.729475	EXPECT	-0.4418243
-4.030505	EXPECTATION	-0.1599851
-4.030505	EXPECTATIONS	-0.1662674
-3.604537	EXPECTED	-0.4683219
-3.905566	EXPEDIENCY	-0.1403973
-3.905566	EXPEDIENT	-0.234814
-4.206596	EXPEDIENTS	-0.1621593
-4.206596	EXPEDITION	-0.1760389
-3.206597	EXPENCE	-0.5102572
-3.808656	EXPENCES	-0.3414707
-4.206596	EXPEND	-0.1546368
-4.206596	EXPENDED	-0.352523
-3.905566	EXPENDITURE	-0.2254089
-4.206596	EXPENSIVE	-0.3535778
-3.729475	EXPERIENCE	-0.1185713
-4.507627	EXPIRA	-0.4769605
-4.206596	EXPIRATION	-0.6215599
-4.030505	EXPIRED	-0.3260764
-3.662529	EXPIREES	-0.4530824
-4.206596	EXPLAIN	-0.3276134
-4.030505	EXPLAINED	-0.4414273
-4.030505	EXPLANATIONS	-0.1706801
-4.206596	EXPLANATORY	-0.1569653
-4.206596	EXPLICIT	-0.1562
-4.206596	EXPLOSION	-0.1539387
-3.808656	EXPOSE	-0.4085119
-3.729475	EXPOSED	-0.7578626
-3.905566	EXPOSING	-0.2676587
-4.206596	EXPOSITION	-0.8308251
-4.206596	EXPOSITORY	-0.1773785
-3.729475	EXPRESS	-0.1838855
-3.662529	EXPRESSED	-0.3068297
-4.030505	EXPRESSING	-0.4788001
-3.604537	EXPRESSION	-0.1956275
-4.206596	EXPRESSIONS	-0.1556038
-4.206596	EXPRESSLY	-0.3539154
-3.808656	EXTENDED	-0.2523291
-4.206596	EXTENDING	-0.1669598
-4.206596	EXTENSION	-0.1555754
-4.030505	EXTENSIVE	-0.1618653
-4.206596	EXTENT	-0.1539387
-4.507627	EXTENUATION	-0.8558645
-4.206596	EXTENUATIONS	-0.634129
-3.729475	EXTERNAL	-0.721487
-3.905566	EXTORTION	-0.51243
-4.507627	EXTRACTED	-0.4766486
-4.030505	EXTRACTS	-0.3641982
-4.507627	EXTRAO	-0.4788811
-4.206596	EXTRAODINARY	-0.4785435
-3.729475	EXTRAORDINARY	-0.2002946
-4.030505	EXTREMELY	-0.1777026
-3.729475	EYE	-0.3317645
-4.206596	EYE-WITNESS	-0.1463437
-4.206596	EYE-WITNESSES	-0.1580402
-3.808656	EYES	-0.2129567
-4.206596	F	-0.3526855
-4.507627	F.9	-0.1661842
-3.662529	FACE	-0.297408
-4.507627	FACIE	-0.1542238
-3.604537	FACT	-0.3069345
-4.206596	FACTITIOUS	-0.1766077
-3.729475	FACTS	-0.135054
-4.206596	FACULTY	-0.3383904
-3.808656	FAIL	-0.1371636
-4.206596	FAILS	-0.1566678
-3.905566	FAILURE	-0.4953075
-4.206596	FAIR	-0.349002
-4.030505	FAITH	-0.2073441
-3.553384	FALL	-0.2212591
-4.030505	FALLS	-0.1545798
-3.277178	FALSE	-0.3061533
-4.206596	FALSEHOOD	-0.1656155
-4.030505	FALSELY	-0.1719542
-4.206596	FALSIFICATION	-0.1566537
-4.206596	FAME	-0.3415818
-4.030505	FAMILIES	-0.1338161
-3.507627	FAMILY	-0.6425146
-3.507627	FAR	-0.5717961
-4.206596	FARMS	-0.1532108
-3.553384	FARTHER	-0.3676398
-4.206596	FAST	-0.1618933
-3.905566	FATHER	-0.2237511
-3.729475	FAVOUR	-0.3271292
-3.905566	FAVOURABLE	-0.2806135
-4.206596	FAVOURITE	-0.1777296
-4.030505	FEAR	-0.2499065
-4.030505	FEATURES	-0.3356543
-4.206596	FEBRUARY	-0.478368
-3.808656	FEE	-0.4166054
-4.206596	FEEBLE	-0.1681069
-4.030505	FEED	-0.4727927
-3.905566	FEEL	-0.2277738
-4.507627	FEELS	-0.4762551
-4.206596	FEES	-0.4584765
-4.206596	FELL	-0.1539101
-4.507627	FELLOW	-0.4788811
-4.030505	FELON	-0.4829862
-4.030505	FELONIES	-0.6175185
-4.206596	FELONIOUS	-0.2810678
-4.206596	FELONS	-0.4570314
-3.905566	FELONY	-0.6240886
-3.808656	FELT	-0.135798
-4.206596	FEMALE	-0.1653516
-4.206596	FENCE	-0.1590701
-4.206596	FENCES	-0.1759305
-3.604537	FEOFFEE	-0.5391086
-4.507627	FER	-0.1654905
-4.206596	FERENT	-0.1498556
-3.604537	FEW	-0.3376178
-4.206596	FEWER	-0.4780841
-4.030505	FFEOFFEE	-0.3284013
-4.507627	FFEOFFEES	-0.162467
-4.507627	FICATIONS	-0.4779354
-3.905566	FICTION	-0.4715592
-4.507627	FIDE	-0.1734019
-4.507627	FIELD	-0.4783815
-4.206596	FIELDS	-0.2815499
-4.206596	FIFTH	-0.3329291
-4.206596	FIFTY	-0.1731291
-4.206596	FIGURE	-0.1599007
-4.206596	FIGURED	-0.4788811
-4.206596	FILINGS	-0.1613049
-4.507627	FILL	-0.1758898
-3.662529	FIND	-0.2010228
-3.808656	FINDING	-0.3067736
-4.206596	FINDS	-0.1727333
-3.905566	FINE	-0.1535535
-4.507627	FINED	-0.2587548
-4.030505	FINGER	-0.4414274
-3.507627	FIRE	-0.4024683
-4.206596	FIRED	-0.1616833
-4.507627	FIRING	-0.3485787
-3.252354	FIRST	-0.3818198
-3.428445	FIT	-0.4376702
-4.206596	FITTED	-0.1631655
-4.206596	FITTEST	-0.1674163
-3.662529	FITTING	-0.7735488
-3.604537	FIVE	-0.4054431
-4.206596	FIX	-0.2795186
-3.553384	FIXED	-0.3075111
-4.206596	FIXING	-0.3509632
-4.206596	FLAG	-0.2683413
-4.206596	FLATTER	-0.3533481
-4.507627	FLATTERS	-0.3325182
-4.030505	FLIGHT	-0.1508764
-4.206596	FLOGGED	-0.1574465
-4.206596	FLOGGING	-0.1674992
-4.206596	FLOORS	-0.4669369
-4.206596	FLOR	-0.1611927
-3.808656	FOLLOW	-0.2559378
-3.808656	FOLLOWING	-0.207377
-3.905566	FOLLOWS	-0.5161925
-3.808656	FOOD	-0.5685524
-4.206596	FOOT	-0.3330566
-3.808656	FOOTING	-0.3136266
-1.991753	FOR	-0.670867
-4.030505	FOR=	-0.634129
-4.206596	FORBIDDEN	-0.4687503
-3.604537	FORCE	-0.467272
-4.030505	FORCED	-0.1720226
-4.206596	FORCIBLY	-0.4687226
-4.507627	FORD	-0.241816
-4.030505	FORD\'S	-0.1768512
-4.507627	FORE	-0.1720773
-3.466234	FOREIGN	-0.6720718
-4.206596	FOREIGNERS	-0.2916771
-3.905566	FOREVER	-0.3990252
-4.206596	FORFEITURES	-0.1539101
-4.030505	FORGERY	-0.3048144
-3.729475	FORM	-0.3450466
-4.206596	FORMATION	-0.1599007
-3.905566	FORMED	-0.5046357
-3.662529	FORMER	-0.3146166
-4.206596	FORMERLY	-0.1777161
-4.206596	FORMIDABLE	-0.1719679
-3.905566	FORTH	-0.2849379
-4.206596	FORTHCOMING	-0.4710511
-4.206596	FORTNIGHT	-0.1661703
-3.507627	FORTUNE	-0.3743358
-4.030505	FORWARD	-0.1561574
-3.361499	FOUND	-0.4373109
-4.030505	FOUNDATION	-0.3714596
-4.206596	FOUNDED	-0.1760389
-4.507627	FOUNDER\'S	-0.1564269
-3.303507	FOUR	-0.3175887
-4.030505	FOURTH	-0.3322628
-3.729475	FRANCE	-0.2613013
-3.604537	FRAUD	-0.1778826
-3.905566	FRAUDS	-1.092383
-3.729475	FRAUDULENT	-0.9806899
-4.030505	FRAUDULENTLY	-0.1569228
-3.905566	FREE	-0.156767
-4.206596	FREEMAN	-0.1770947
-4.030505	FRENCH	-0.1393516
-4.507627	FREQUENT	-0.1776486
-4.206596	FREQUENTLY	-0.1770541
-3.808656	FRESH	-0.3326457
-4.507627	FRESHER	-0.172979
-3.604537	FRIEND	-0.3309111
-4.206596	FRIENDS	-0.1599007
-2.28491	FROM	-0.620779
-4.206596	FRUIT	-0.3373962
-4.206596	FUL	-0.1775541
-4.206596	FULFILLED	-0.3353163
-3.428445	FULL	-0.2469631
-3.905566	FULLY	-0.1555327
-3.905566	FUNCTION	-0.6132165
-4.030505	FUND	-0.3667389
-4.206596	FUR	-0.4769605
-4.030505	FURNISH	-0.1468078
-4.206596	FURNISHED	-0.3499429
-3.662529	FURTHER	-0.273327
-4.206596	FURTHERANCE	-0.4669369
-3.662529	FUTURE	-0.2017451
-4.206596	G	-0.1766213
-4.030505	GAIN	-0.1230497
-4.507627	GAINST	-0.1643365
-4.206596	GAOL	-0.15938
-3.662529	GAOLS	-0.1404268
-3.002476	GAP/	-0.2649711
-4.507627	GATHERING	-0.1487603
-3.808656	GAVE	-0.243977
-4.206596	GE=	-0.4580378
-4.507627	GENCE	-0.4672697
-4.206596	GENE	-0.4739954
-4.507627	GENE=	-0.4580378
-3.507627	GENERAL	-0.3925144
-3.808656	GENERALLY	-0.1381259
-4.507627	GENERIC	-0.4787596
-3.808656	GENTLEMAN	-0.3013362
-3.808656	GENTLEMEN	-0.154181
-3.808656	GENUINE	-0.4409858
-4.206596	GENUS	-0.1508046
-4.030505	GEO	-0.337284
-4.206596	GEORGE	-0.4599169
-4.507627	GESTURES	-0.1658514
-3.662529	GET	-0.2158703
-4.206596	GETS	-0.1697324
-4.030505	GETTING	-0.149438
-3.361499	GIVE	-0.5438441
-3.076263	GIVEN	-0.4048669
-3.808656	GIVES	-0.1404267
-3.331535	GIVING	-0.2634291
-4.206596	GLAD	-0.322435
-4.507627	GLASS	-0.4750314
-3.905566	GO	-0.1845188
-4.206596	GOAL	-0.6527399
-4.507627	GOALER	-0.3370315
-4.030505	GOD	-0.341901
-3.662529	GOES	-0.1821425
-3.729475	GOING	-0.1997311
-3.662529	GOLD	-0.3844208
-3.808656	GONE	-0.3772536
-3.030505	GOOD	-0.2017632
-4.507627	GOODNESS	-0.1463437
-3.604537	GOODS	-0.282481
-3.729475	GOT	-0.2095714
-3.808656	GOVERN	-0.4508137
-4.030505	GOVERNED	-0.6511226
-3.045228	GOVERNMENT	-0.3367695
-3.393683	GOVERNOR	-0.4361379
-3.729475	GOVERNORS	-0.5328122
-4.030505	GOVERNOR\'S	-0.3280863
-3.905566	GRACE	-0.2570938
-4.206596	GRACE\'S	-0.1615432
-4.206596	GRACIOUSLY	-0.779884
-4.507627	GRADUALLY	-0.1619633
-3.662529	GRAIN	-0.2191321
-4.206596	GRANADA	-0.1610525
-4.206596	GRAND	-0.1776351
-4.206596	GRANT	-0.1696224
-3.729475	GRANTED	-0.300715
-4.030505	GRAPHICAL	-0.3494113
-4.206596	GRATIFICATIONS	-0.1596193
-4.206596	GRATIS	-0.1606736
-4.206596	GRATITUDE	-0.1616693
-4.507627	GRATUITIES	-0.4730663
-4.206596	GRATUITOUS	-0.1539672
-4.206596	GRAVITATION	-0.1620613
-3.145899	GREAT	-0.4033375
-4.206596	GREAT=	-0.4580378
-3.393683	GREATER	-0.4819145
-4.206596	GREATEST	-0.3024415
-4.206596	GRIEVANCES	-0.1715847
-4.030505	GROSS	-0.3378586
-3.361499	GROUND	-0.3870933
-3.808656	GROUNDED	-0.3512901
-3.905566	GROUNDS	-0.4506697
-4.206596	GRUDGE	-0.176337
-3.905566	GRUDGED	-0.1455885
-3.905566	GUARD	-0.5238078
-3.729475	GUARDIAN	-0.2005318
-4.507627	GUARDIANS	-0.4730663
-4.030505	GUARDIANSHIP	-0.2296943
-4.206596	GUARDING	-0.1772163
-3.662529	GUILT	-0.2746397
-3.905566	GUILTY	-0.3549174
-4.030505	GUINEA	-0.303149
-4.206596	GUINEAS	-0.1447883
-4.030505	GUNPOWDER	-0.2896231
-3.905566	H	-0.5328003
-4.030505	HABIT	-0.371085
-4.030505	HABITS	-0.1388942
-4.206596	HACKING	-0.1403973
-2.688083	HAD	-0.3901399
-4.206596	HAIR	-0.1617673
-3.303507	HALF	-0.2671468
-4.206596	HALFPENNY	-0.1688929
-4.030505	HALL	-0.2843891
-3.466234	HAND	-0.429118
-4.507627	HANDFUL	-0.6430281
-3.466234	HANDS	-0.2077519
-4.030505	HANG	-0.3500246
-4.507627	HAPP:SS	-0.4730663
-3.428445	HAPPEN	-0.3888438
-3.662529	HAPPENED	-0.2746949
-4.206596	HAPPENING	-0.1444387
-3.808656	HAPPENS	-0.2838397
-4.030505	HAPPINESS	-0.3339195
-4.206596	HARBOURING	-0.1669183
-3.729475	HARD	-0.6996686
-3.808656	HARDLY	-0.221313
-4.206596	HARDSHIP	-0.1463437
-4.206596	HARDWICK	-0.1569653
-4.206596	HARM	-0.1671812
-4.206596	HARSH	-0.1716806
-4.030505	HARVEST	-0.156597
-2.694713	HAS	-0.4519885
-3.604537	HATH	-0.3510738
-2.675117	HAVE	-0.5295258
-2.916562	HAVING	-0.3308977
-4.507627	HAWKESBURY	-0.1602803
-4.206596	HAZARD	-0.4630913
-2.424841	HE	-0.6729659
-3.553384	HEAD	-0.2797499
-3.905566	HEADS	-0.2414652
-4.206596	HEALTH	-0.1664614
-3.905566	HEAR	-0.1713108
-3.905566	HEARD	-0.1511922
-4.206596	HEAVIER	-0.6545538
-3.808656	HEAVY	-0.1516798
-4.206596	HECATOMB	-0.4630913
-4.507627	HEED	-0.1716942
-4.507627	HEEDLESSNESS	-0.1621033
-4.507627	HEIRS	-0.5812173
-4.206596	HELD	-0.1770812
-4.030505	HELP	-0.1641694
-4.206596	HENCE	-0.4785435
-4.206596	HENRY	-0.1778511
-3.145899	HER	-0.2965754
-3.002476	HERE	-0.2598833
-4.206596	HEREAFTER	-0.3527667
-3.729475	HEREBY	-0.5309122
-3.604537	HEREIN	-0.7127575
-4.030505	HEREINAFTER	-1.080712
-3.905566	HERSELF	-0.1697324
-3.507627	HIGH	-0.4015248
-3.905566	HIGHER	-0.16297
-4.206596	HIGHEST	-0.1655183
-4.206596	HIGHLY	-0.177365
-4.206596	HIGHWAY	-0.478449
-4.206596	HILEY	-0.6549588
-2.609999	HIM	-0.5438132
-2.894843	HIMSELF	-0.2952847
-4.206596	HINDERING	-0.3461536
-4.507627	HIRED	-0.6548644
-2.478243	HIS	-0.5003786
-4.206596	HISTORY	-0.2522694
-4.206596	HITHER	-0.1622572
-4.206596	HITHERTO	-0.1768377
-4.206596	HOC
-4.030505	HOLD	-0.2823711
-4.206596	HOLDEN	-0.1403973
-3.905566	HOME	-0.4708174
-3.808656	HONEST	-0.2687821
-4.206596	HONESTY	-0.1629281
-4.507627	HONOUR	-0.5636665
-3.905566	HONOURABLE	-0.2689889
-3.729475	HOPE	-0.1978858
-3.905566	HOPED	-0.2476284
-4.030505	HOPES	-0.1748311
-4.206596	HORSE	-0.2060919
-4.030505	HOSTILE	-0.1675959
-4.206596	HOUR	-0.1566112
-3.808656	HOURS	-0.3536738
-3.303507	HOUSE	-0.6587391
-3.808656	HOUSES	-0.5213856
-3.206597	HOW	-0.2098137
-3.808656	HOWARD	-0.1465468
-3.185407	HOWEVER	-0.2849379
-4.206596	HOWSOEVER	-0.1674854
-3.808656	HULK	-0.3603767
-4.030505	HULKS	-0.1841689
-3.553384	HUMAN	-0.3701615
-4.206596	HUMANITY	-0.4730663
-4.206596	HUMBLE	-0.1620053
-4.030505	HUMBLY	-0.5757101
-4.206596	HUMILIATION	-0.1599007
-3.428445	HUNDRED	-0.4086516
-4.030505	HUNG	-0.3010318
-3.808656	HUSBAND	-0.2476004
-2.662529	I	-0.5216058
-4.206596	I.E	-0.4672697
-4.030505	I:E	-0.6500866
-4.507627	IARY	-0.4786921
-4.206596	IB	-0.8652097
-3.604537	IDEA	-0.1900271
-4.030505	IDEAL	-0.1771622
-3.729475	IDEAS	-0.1691408
-4.030505	IDLE	-0.1608561
-3.808656	IDLENESS	-0.2811033
-2.615532	IF	-0.7239625
-4.206596	IGNOMINIOUS	-0.2815215
-4.206596	IGNOMINIOUSLY	-0.1719816
-4.030505	IGNORANCE	-0.2640691
-4.206596	IGNORANT	-0.1653794
-3.905566	II	-0.6561617
-3.808656	III	-0.7098639
-3.604537	ILL	-0.1652405
-3.466234	ILLEGAL	-0.287154
-3.604537	IM	-0.8242081
-4.206596	IM=	-0.4580378
-4.206596	IMAGE	-0.1619073
-3.905566	IMAGINE	-0.2589638
-4.507627	IMITATION	-0.1444387
-4.206596	IMMATERIAL	-0.154295
-4.030505	IMMEDIATE	-0.1717079
-3.553384	IMMEDIATELY	-0.2487475
-4.030505	IMPERATIVE	-0.3417622
-4.206596	IMPERIAL	-0.4788136
-4.206596	IMPLIED	-0.1619213
-3.729475	IMPORT	-0.2583691
-4.030505	IMPORTANCE	-0.322435
-4.030505	IMPOSED	-0.4733534
-4.507627	IMPOSITIONS	-0.4580378
-4.206596	IMPOSSIBILITY	-0.4669369
-3.808656	IMPOSSIBLE	-0.3971823
-4.206596	IMPOSTOR	-0.1336218
-4.030505	IMPOSTURE	-0.4956309
-4.206596	IMPRESSION	-0.1501002
-4.030505	IMPRINTED	-0.1550068
-4.030505	IMPRISONED	-0.4626432
-3.662529	IMPRISONMENT	-0.2775328
-3.808656	IMPROPER	-0.2643815
-4.030505	IMPROVE	-0.1549357
-3.808656	IMPROVED	-0.2738
-3.729475	IMPROVEMENT	-0.4228531
-3.729475	IMPROVEMENTS	-0.5546209
-4.206596	IMPUNITY	-0.1489479
-4.507627	IMPUTATION	-0.1475754
-4.030505	IMPUTATIONS	-0.1566962
-4.206596	IMPUTED	-0.6448415
-1.746451	IN	-0.77266
-3.428445	IN=	-1.361128
-4.206596	INABILITY	-0.1515221
-4.030505	INATTENTION	-0.1567245
-4.030505	INCAPABLE	-0.1652961
-3.905566	INCENDIARISM	-0.4361137
-4.507627	INCESSANTLY	-0.4788136
-4.030505	INCIDENT	-0.7697802
-4.206596	INCIDENTS	-0.1546368
-4.206596	INCITEMENT	-0.1463437
-4.206596	INCITEMENTS	-0.4765536
-4.507627	INCLINATION	-0.1594504
-4.030505	INCLINE	-0.1605612
-4.206596	INCLINED	-0.1661981
-4.507627	INCLUDE	-0.3707533
-3.905566	INCLUDED	-0.3118
-4.206596	INCLUDING	-0.1498412
-4.206596	INCON	-0.4769605
-4.206596	INCONSIDERABLE	-0.3208796
-4.206596	INCONSISTENCY	-0.1731018
-3.662529	INCONVENIENCE	-0.2654642
-3.808656	INCREASE	-0.2260616
-4.206596	INCREASED	-0.1638629
-4.206596	INCREASING	-0.3377886
-4.206596	INCUR	-0.1710504
-4.206596	INCURRED	-0.1437531
-3.252354	INDEED	-0.2856123
-4.206596	INDELIBLE	-0.4787731
-4.030505	INDEMNIFICATION	-0.632583
-4.507627	INDEMNITY	-0.1560014
-4.030505	INDI	-0.6500866
-4.507627	INDICATES	-0.1617673
-4.206596	INDICATION	-0.1649904
-4.206596	INDIFFERENCE	-0.1750214
-4.030505	INDIGENCE	-0.1559304
-4.030505	INDIRECT	-0.2600476
-4.206596	INDIRECTLY	-0.1677203
-4.206596	INDISCRIMINATELY	-0.1657681
-3.604537	INDIVIDUAL	-0.1558107
-4.030505	INDIVIDUALLY	-0.3342585
-3.507627	INDIVIDUALS	-0.3159292
-4.030505	INDUCE	-0.3565875
-4.206596	INDUCED	-0.7697802
-4.030505	INDUCEMENT	-0.3164886
-4.206596	INDULGENCE	-0.1581673
-4.030505	INDUSTRIOUS	-0.153425
-4.206596	INDUSTRY	-0.2767045
-4.507627	INEVITABLE	-0.4730663
-4.206596	INEXPEDIENT	-0.1677203
-4.206596	INEXPLICABLE	-0.4672697
-3.905566	INFAMY	-0.286776
-4.030505	INFANTS	-0.1352475
-4.206596	INFER	-0.3373261
-3.905566	INFERENCE	-0.1443366
-3.905566	INFERIOR	-0.1916528
-4.507627	INFIRMARY	-0.6537425
-3.808656	INFLICTED	-0.2530722
-3.729475	INFLUENCE	-0.2707307
-4.030505	INFORM	-0.2454538
-3.466234	INFORMATION	-0.1934581
-3.808656	INFORMED	-0.3757874
-4.507627	INFRA	-0.1447883
-3.808656	ING	-0.1910218
-4.206596	INGENIOUS	-0.1567812
-3.905566	INGENUITY	-0.3982805
-4.206596	INGLY	-0.1776351
-3.905566	INGREDIENTS	-0.4651019
-3.905566	INHABITANTS	-0.3005086
-3.808656	INJURED	-0.299902
-3.808656	INJURIES	-0.4440709
-4.030505	INJURIOUS	-0.280372
-3.507627	INJURY	-0.3765805
-4.206596	INJUSTICE	-0.1750893
-4.206596	INN	-0.4788541
-4.030505	INNOCENCE	-0.2217015
-3.729475	INNOCENT	-0.1920768
-4.206596	INQUIRIES	-0.1778241
-4.206596	INSANE	-0.1522671
-4.206596	INSERT	-0.1574465
-4.030505	INSERTED	-0.4659648
-4.206596	INSERTING	-0.1768648
-4.507627	INSIST	-0.1738924
-4.206596	INSOLVENCY	-0.2522154
-4.507627	INSOLVENT	-0.1538246
-3.905566	INSOMUCH	-0.8733389
-3.905566	INSPECTION	-0.3017511
-4.206596	INSPECTOR	-0.4669369
-4.206596	INSTALLMENTS	-0.1663505
-3.361499	INSTANCE	-0.3236496
-3.361499	INSTANCES	-0.1954697
-4.206596	INSTANT	-0.2920369
-4.206596	INSTANTLY	-0.1778106
-3.303507	INSTEAD	-1.290567
-4.507627	INSTITUTION	-0.1629281
-3.604537	INSTRUCTION	-0.2484029
-3.729475	INSTRUCTIONS	-0.483708
-4.206596	INSTRUCTIVE	-0.1569228
-3.729475	INSTRUMENT	-0.356975
-3.662529	INSTRUMENTS	-0.3270231
-4.507627	INSU	-0.4769605
-4.507627	INSUFFICIENT	-0.1523387
-4.206596	INSULT	-0.4537692
-4.206596	INSULTING	-0.779884
-4.507627	INSULTS	-0.3230585
-4.030505	INSURANCE	-0.2828235
-4.507627	INSURE	-0.4687503
-4.507627	INSURED	-0.6511226
-4.206596	INTELLIGENT	-0.156937
-3.729475	INTELLIGIBLE	-0.2301007
-4.030505	INTEND	-0.4754669
-3.361499	INTENDED	-0.6074807
-3.729475	INTENDING	-0.4968252
-4.206596	INTENDS	-0.2706871
-4.030505	INTENSITY	-0.1649904
-4.030505	INTENT	-0.1552201
-3.553384	INTENTION	-0.5549603
-4.206596	INTENTIONS	-0.1487747
-4.206596	INTERCOURSE	-0.1711464
-3.604537	INTEREST	-0.6126317
-3.905566	INTERESTED	-0.3432448
-4.206596	INTERESTS	-0.8648769
-4.507627	INTERNAL	-0.4788811
-4.206596	INTERRUPTION	-0.1749806
-4.206596	INTERVAL	-0.1617253
-4.507627	INTERVALS	-0.4669369
-4.206596	INTIMATE	-0.4788001
-4.206596	INTIMATELY	-0.1778241
-3.553384	INTITLED	-0.7175362
-2.826385	INTO	-0.5425245
-4.507627	INTOXICATION	-0.4672697
-4.030505	INTRINSIC	-0.4756981
-4.030505	INTRODUCED	-0.1586471
-3.729475	INUNDATION	-0.4451917
-4.030505	INVENTED	-0.2985723
-4.206596	INVENTIONS	-0.1620613
-4.206596	INVEST	-0.1705429
-4.206596	INVESTED	-0.171393
-4.206596	INVOLVES	-0.1561574
-4.030505	ION	-0.2411008
-4.206596	IONS	-0.350011
-4.206596	IPSO	-0.1778511
-4.206596	IRELAND	-0.1403385
-4.030505	IRONS	-0.6505504
-4.206596	IRRATIONAL	-0.1397201
-4.030505	IRREMOVEABLE	-0.4630073
-3.808656	IRREPARABLE	-0.7007926
-4.030505	IRREPLACEABLE	-0.1608701
-4.507627	IRRESISTIBLE	-0.5548912
-4.206596	IRRESPONSIBLE	-0.1659762
-2.03487	IS	-0.4978356
-4.030505	ISLAND	-0.2276304
-4.030505	ISSUE	-0.1357979
-3.808656	ISSUED	-0.2239404
-4.206596	ISSUING	-0.4788946
-2.05126	IT	-0.7536991
-2.951324	ITS	-0.3679309
-3.228873	ITSELF	-0.3878554
-3.428445	IT\'S	-0.2902439
-3.905566	IV	-0.8652097
-4.030505	JAIL	-0.1618653
-4.206596	JAILS	-0.154238
-4.030505	JANUARY	-0.3325323
-4.507627	JE	-0.5529041
-4.206596	JER	-0.337284
-4.030505	JEREMY	-1.41789
-4.507627	JESTY	-0.1550494
-3.905566	JEW	-0.2640838
-4.030505	JEWS	-0.1301715
-4.206596	JOHN	-0.1765942
-4.206596	JOIN	-0.1755101
-4.507627	JOINTLY	-0.7754619
-3.808656	JUDGE	-0.291947
-4.206596	JUDGED	-0.1512066
-4.507627	JUDGES	-0.1669737
-3.905566	JUDGING	-0.1570786
-4.030505	JUDGMENT	-0.143198
-4.030505	JUDICIAL	-0.3436734
-3.662529	JULY	-0.7332845
-4.206596	JUNE	-0.4687503
-4.206596	JURE	-0.1775271
-4.206596	JURED	-0.1699386
-4.206596	JURIES	-0.3367648
-4.030505	JURISDICTION	-0.1469382
-3.905566	JURISPRUDENCE	-0.3667535
-3.729475	JURY	-0.1952634
-3.604537	JUST	-0.2147072
-4.507627	JUSTI=	-0.4580378
-3.228873	JUSTICE	-0.4112988
-3.905566	JUSTICES	-0.1377264
-4.206596	JUSTICIABILIS
-4.030505	JUSTIFICATION	-0.2811206
-3.662529	JUSTIFICATIONS	-0.6419587
-4.206596	JUSTIFIED	-0.1539101
-4.206596	JUSTIFY	-0.3466891
-4.206596	JUSTLY	-0.1720089
-4.030505	KEEP	-0.452451
-3.662529	KEEPING	-0.2477876
-4.206596	KEEPS	-0.1514074
-3.277178	KEPT	-0.3765886
-4.206596	KEY	-0.1651433
-4.206596	KILLED	-0.173729
-3.393683	KIND	-0.514916
-4.507627	KINDLING	-0.4787731
-3.604537	KINDS	-0.3934132
-3.905566	KING	-0.2753853
-4.206596	KINGS	-0.1515221
-4.030505	KING\'S	-0.6547564
-4.206596	KNEW	-0.4580378
-4.507627	KNIGHT	-0.4669369
-3.466234	KNOW	-0.3534434
-4.030505	KNOW=	-0.634129
-3.428445	KNOWING	-0.3041641
-3.662529	KNOWINGLY	-0.1335322
-3.553384	KNOWLEDGE	-0.4306288
-3.228873	KNOWN	-0.4325656
-3.662529	KNOWS	-0.3691467
-4.206596	L	-0.1446718
-3.905566	LA	-0.1756593
-3.553384	LABOUR	-0.4386282
-4.030505	LABOURED	-0.1557032
-4.030505	LABOURING	-0.1557458
-3.662529	LAID	-0.3471828
-3.662529	LAND	-0.3241429
-4.206596	LANDED	-0.1610385
-3.729475	LANGUAGE	-0.2875539
-4.206596	LAR	-0.3530778
-3.905566	LARCENY	-0.1888774
-3.604537	LARGE	-0.1914819
-4.206596	LASCIVIOUS	-0.1569795
-4.206596	LASHES	-0.2793761
-3.507627	LAST	-0.2176498
-4.507627	LASTS	-0.4630913
-3.905566	LATE	-0.1560439
-3.808656	LATELY	-0.3326882
-4.507627	LATER	-0.156852
-4.206596	LATITUDE	-0.1533251
-3.808656	LATTER	-0.4415436
-2.894843	LAW	-0.5595974
-3.361499	LAWFUL	-0.5386167
-3.092653	LAWS	-0.442241
-3.905566	LAWYER	-0.1621173
-4.507627	LAWYERS	-0.1556038
-3.905566	LAY	-0.2467944
-4.030505	LAYING	-0.1658236
-3.905566	LAYS	-0.2999736
-4.206596	LE	-0.1777026
-3.905566	LEAD	-0.1680378
-4.030505	LEARN	-0.1550637
-3.905566	LEARNING	-0.460593
-3.729475	LEAST	-0.4258459
-3.428445	LEAVE	-0.276172
-4.030505	LEAVING	-0.3471143
-4.030505	LED	-0.1667937
-4.206596	LEDGE	-0.1608841
-3.507627	LEFT	-0.3033956
-3.604537	LEGAL	-0.3469492
-4.507627	LEGE
-3.808656	LEGISLATION	-0.1905306
-3.905566	LEGISLATIVE	-0.3321352
-3.905566	LEGISLATOR	-0.4626292
-4.206596	LEISURE	-0.1632632
-3.604537	LENGTH	-0.4158103
-4.030505	LES	-0.1569512
-3.145899	LESS	-0.4068127
-4.206596	LESSENED	-0.1712834
-4.206596	LEST	-0.1709682
-3.277178	LET	-0.5249779
-4.206596	LETS	-0.1731973
-3.553384	LETTER	-0.4578315
-4.507627	LEURS	-0.3330424
-4.507627	LEVEL	-0.1673886
-3.553384	LIABLE	-0.5743122
-4.507627	LIATION	-0.1608561
-3.553384	LIBERTY	-0.4275075
-4.507627	LIC	-0.1670982
-4.206596	LICENCE	-0.1350391
-4.206596	LIES	-0.1487603
-4.507627	LIEU	-0.3205299
-3.393683	LIFE	-0.5020249
-3.553384	LIGHT	-0.2471608
-3.252354	LIKE	-0.3211958
-3.729475	LIKELY	-0.6089463
-3.808656	LIKEWISE	-0.2475566
-4.030505	LIMITATIONS	-0.6480757
-3.729475	LIMITED	-0.2334195
-4.507627	LIMITS	-0.407124
-4.507627	LINCOLN\'S	-0.6549723
-4.030505	LINE	-0.5613707
-4.206596	LINN	-0.6433609
-3.808656	LIST	-0.5204586
-3.252354	LITTLE	-0.2282709
-3.905566	LIVE	-0.3664331
-4.206596	LIVED	-0.1734019
-4.030505	LIVELIHOOD	-0.4645444
-4.030505	LIVELYHOOD	-0.5614544
-3.662529	LIVES	-0.2959069
-3.662529	LIVING	-0.6093733
-4.206596	LOAD	-0.1639047
-4.206596	LOADED	-0.4763229
-3.604537	LOCAL	-0.1634725
-4.030505	LODGING	-0.2241952
-3.905566	LOIX	-0.6389025
-4.206596	LONDON	-0.2818332
-4.206596	LONE	-0.4786921
-3.428445	LONG	-0.3471188
-3.808656	LONGER	-0.2042051
-3.662529	LOOK	-0.3210397
-3.729475	LOOKED	-0.4509144
-3.905566	LOOSE	-0.1541525
-3.428445	LORD	-0.5240332
-3.808656	LORDS	-0.8091375
-4.030505	LORDSHIP	-0.1998207
-4.507627	LORDSHIPS	-0.1610385
-4.206596	LORDSHIP\'S	-0.2370091
-4.206596	LOSE	-0.4781652
-4.206596	LOSES	-0.1664475
-3.507627	LOSS	-0.2188293
-4.030505	LOSSES	-0.1474741
-3.808656	LOST	-0.3330566
-4.206596	LOVERS	-0.6430281
-3.905566	LOW	-0.1497837
-4.507627	LOWER	-0.1569228
-4.206596	LOWEST	-0.167278
-4.206596	LUCKY	-0.1570078
-4.030505	LUCRE	-0.378389
-4.030505	LY	-0.1703508
-4.206596	LYING	-0.1544517
-4.206596	L\'HOMME	-0.1737835
-3.729475	MA	-0.7779633
-3.905566	MAD	-0.284206
-2.81743	MADE	-0.5911136
-4.030505	MAGISTRACY	-0.1416459
-3.905566	MAGISTRATE	-0.2932526
-3.808656	MAGISTRATES	-0.3711859
-4.206596	MAGNITUDE	-0.4584765
-3.662529	MAIN	-0.2228906
-4.206596	MAINTAIN	-0.1472859
-4.030505	MAINTAINING	-0.5186952
-3.808656	MAINTENANCE	-0.4143097
-3.905566	MAJESTY	-0.6332167
-3.662529	MAJESTY\'S	-0.436757
-3.277178	MAKE	-0.3023589
-4.507627	MAKER	-0.1616413
-3.604537	MAKES	-0.1435049
-3.428445	MAKING	-0.302945
-3.905566	MALE	-0.2893699
-4.507627	MALE=	-0.4580378
-4.206596	MALEVOLENCE	-0.1620613
-4.206596	MALICE	-0.159563
-4.206596	MALUM	-0.1698149
-2.976148	MAN	-0.4318414
-3.808656	MANAGEMENT	-0.7054739
-4.507627	MANAGERS	-0.6481717
-4.507627	MANAGING	-0.4775701
-4.507627	MANIACS	-0.1662397
-4.030505	MANIFEST	-0.33283
-4.507627	MANIFESTATION	-0.1617673
-3.808656	MANIFESTED	-0.2321778
-4.206596	MANKIND	-0.1492074
-3.165204	MANNER	-0.3970336
-4.206596	MANNERS	-0.1560014
-4.206596	MANUFACTORIES	-0.1560014
-3.361499	MANY	-0.350073
-4.030505	MAN\'S	-0.153425
-3.662529	MARCH	-0.6969931
-4.206596	MARINE	-0.1778106
-4.507627	MARKET	-0.4744591
-4.030505	MARKETABLE	-0.2864399
-4.030505	MARKS	-0.1757407
-4.030505	MARRIAGE	-0.1057137
-4.030505	MARRIED	-0.3609939
-4.206596	MARRY	-0.177419
-4.206596	MARTIAL	-0.3325182
-4.030505	MASK	-0.1500427
-4.507627	MASS	-0.1447883
-3.662529	MASTER	-0.267521
-4.030505	MASTERS	-0.2389225
-4.206596	MATE	-0.1660872
-3.662529	MATERIAL	-0.2184549
-4.206596	MATERIALLY	-0.1568803
-3.905566	MATERIALS	-0.3433139
-3.905566	MATRIMONIAL	-0.4759427
-3.331535	MATTER	-0.3659059
-3.905566	MATTERS	-0.9348758
-4.206596	MAXIM	-0.1567387
-2.4702	MAY	-0.6795275
-3.361499	ME	-0.2859115
-4.206596	MEAGRE	-0.1720363
-4.030505	MEAL	-0.1572201
-4.507627	MEALS	-0.1508764
-3.729475	MEAN	-0.3814026
-3.662529	MEANING	-0.2593885
-3.127415	MEANS	-0.4762527
-3.662529	MEANT	-0.4584482
-4.206596	MEANWHILE	-0.4779624
-3.393683	MEASURE	-0.3075565
-3.507627	MEASURES	-0.4031579
-3.808656	MEAT	-0.3278427
-4.507627	MEDIATELY	-0.1696912
-3.808656	MEDICAL	-0.2408785
-4.206596	MEDICINE	-0.3415124
-4.030505	MEDICINES	-0.1525819
-4.030505	MEET	-0.3957275
-3.808656	MEMBER	-0.5265725
-4.030505	MEMBERS	-0.4663539
-4.206596	MEMORIAL	-0.1737426
-3.145899	MEN	-0.2180238
-4.507627	MENCEMENT	-0.1599007
-4.030505	MENT	-0.1975591
-4.507627	MENTI	-0.4769605
-3.228873	MENTIONED	-0.4155931
-4.206596	MENTIONING	-0.3279431
-4.206596	MENTS	-0.1477635
-4.206596	MEN\'S	-0.1570078
-4.030505	MERCANTILE	-0.6548778
-3.808656	MERCY	-0.3258893
-3.729475	MERE	-0.2654012
-3.729475	MERELY	-0.3147492
-4.030505	MERIT	-0.1628862
-4.206596	MESS:RS	-0.4788946
-4.206596	MESSES	-0.4782463
-3.808656	METAL	-0.1531965
-4.206596	METALLIC	-0.1777836
-3.808656	METALS	-0.3329858
-3.905566	METHOD	-0.258299
-4.206596	MIDDLESEX	-0.1777296
-4.507627	MIDST	-0.8648769
-2.905567	MIGHT	-0.503968
-3.729475	MILITARY	-0.269533
-3.553384	MIND	-0.1905953
-4.030505	MINDS	-0.158915
-3.808656	MINE	-0.4495594
-3.905566	MINISTER	-0.2726733
-3.808656	MINISTERS	-0.202139
-4.206596	MINT	-0.2809117
-4.206596	MINUTE	-0.1776081
-4.206596	MINUTENESS	-0.1690444
-4.030505	MIS	-0.6530517
-3.145899	MISCHIEF	-0.363839
-3.553384	MISCHIEVOUS	-0.1380223
-4.030505	MISFORTUNE	-0.1116324
-4.030505	MISFORTUNES	-0.13783
-4.507627	MISSIONERS	-0.3374242
-4.507627	MISTAKE	-0.1752115
-4.206596	MISTAKEN	-0.1592251
-4.206596	MISTAKES	-0.1748311
-4.507627	MOB	-0.4788946
-3.553384	MODE	-0.5911624
-3.905566	MODERATE	-0.2024452
-4.206596	MODIFICATIONS	-0.4778407
-4.030505	MOMENT	-0.4488224
-4.507627	MON	-0.1776621
-3.076263	MONEY	-0.4254334
-4.206596	MONG	-0.1705017
-4.206596	MONS	-0.168438
-4.206596	MONSTER	-0.3512756
-4.030505	MONTESQUIEU	-0.1438261
-3.729475	MONTH	-0.2473497
-3.553384	MONTHS	-0.4166479
-3.604537	MORAL	-0.384054
-4.206596	MORALITY	-0.4630913
-4.206596	MORALS	-0.4781111
-2.701447	MORE	-0.3790804
-3.662529	MOREOVER	-0.5107367
-3.905566	MORTALITY	-0.2731947
-4.206596	MORTIFICATION	-0.1447883
-3.165204	MOST	-0.3006027
-3.905566	MOTHER	-0.3361466
-3.905566	MOTION	-0.2297691
-3.604537	MOTIVE	-0.3175693
-3.808656	MOTIVES	-0.2033776
-4.030505	MOUNT	-0.1418805
-4.507627	MOVE	-0.156682
-3.808656	MOVEABLE	-0.316047
-3.002476	MR	-0.7023765
-3.092653	MUCH	-0.508151
-4.507627	MUEL	-0.3499429
-3.729475	MULTITUDE	-0.6200708
-4.206596	MULTITUDES	-0.1744913
-3.729475	MUNICIPAL	-0.4408237
-4.206596	MURDER	-0.1539387
-4.206596	MUSQUET	-0.1635144
-2.976148	MUST	-0.4625616
-4.507627	MUTANDIS	-0.1558736
-4.206596	MUTATIS	-0.4788946
-3.060468	MY	-0.384273
-3.808656	MYSELF	-0.2149643
-4.206596	N	-1.120482
-4.030505	NA	-0.6500866
-4.206596	NABLE	-0.1760118
-4.030505	NAL	-0.1657681
-3.428445	NAME	-0.3059973
-4.206596	NAMED	-0.167513
-4.030505	NAMES	-0.1459663
-4.206596	NARY	-0.1770676
-3.808656	NATION	-0.3308846
-4.507627	NATIONAL	-0.7798301
-3.662529	NATIONS	-0.2466697
-4.206596	NATIVE	-0.3380826
-3.905566	NATIVES	-0.2862605
-4.206596	NATU	-0.4769605
-3.303507	NATURAL	-0.2840775
-3.729475	NATURALLY	-0.154352
-3.206597	NATURE	-0.5575038
-4.206596	NAVIGABLE	-0.3539019
-4.206596	NAVY	-0.4785571
-4.206596	NE	-0.4769605
-3.466234	NEAR	-0.3025692
-3.808656	NEARLY	-0.1617953
-4.030505	NECESSARIES	-0.2802015
-3.662529	NECESSARILY	-0.2546166
-2.927843	NECESSARY	-0.5518904
-4.206596	NECESSITIES	-0.167513
-3.808656	NECESSITY	-0.3925083
-4.206596	NECK	-0.1616413
-3.729475	NEED	-0.3413862
-4.206596	NEEDFUL	-0.1773785
-3.905566	NEEDS	-0.1497404
-4.030505	NEGATIVE	-0.1525104
-3.808656	NEGLECT	-0.1583931
-4.030505	NEGLECTED	-0.1617393
-4.206596	NEGOTIATION	-0.1593377
-4.030505	NEIGHBOUR	-0.157404
-4.206596	NEIGHBOURHOOD	-0.3149264
-4.206596	NEIGHBOURS	-0.1675821
-4.206596	NEIGHBOUR\'S	-0.1776621
-3.905566	NEILD	-0.1575879
-3.393683	NEITHER	-0.43284
-4.507627	NEPEAN	-0.1560865
-4.507627	NER	-0.1539101
-4.507627	NERAL	-0.1676097
-4.206596	NESS	-0.1487892
-3.361499	NEVER	-0.3065789
-3.393683	NEW	-0.5513115
-3.808656	NEXT	-0.1856691
-4.030505	NIGHT	-0.1530822
-4.507627	NIHIL	-0.1778376
-4.206596	NINE	-0.1755643
-4.507627	NINETY	-0.4786921
-4.206596	NISHMENT	-0.1538388
-2.729475	NO	-0.3549228
-3.662529	NOBLE	-0.2086098
-3.729475	NOBODY	-0.2168781
-4.507627	NOMENCLATURE	-0.4580378
-4.206596	NOMINALLY	-0.3467028
-4.030505	NON	-0.1777026
-3.604537	NONE	-0.348694
-3.060468	NOR	-0.348717
-3.905566	NORFOLK	-0.8768076
-4.206596	NORFOLK-ISLAND	-0.1652961
-2.466234	NOT	-0.421514
-3.729475	NOTE	-0.6061186
-4.030505	NOTES	-0.1406179
-3.185407	NOTHING	-0.3237053
-3.662529	NOTICE	-0.4341136
-4.206596	NOTIFIED	-0.47465
-3.808656	NOTION	-0.287056
-4.030505	NOTORIOUS	-0.1574748
-3.808656	NOTWITHSTANDING	-0.2417565
-2.939425	NOW	-0.3301717
-3.808656	NOXIOUS	-0.5655912
-4.206596	NUISANCES	-0.1508764
-4.507627	NULLITY	-0.6430281
-4.030505	NUM	-0.6530517
-3.145899	NUMBER	-0.8506125
-4.206596	NUMBERS	-0.1597178
-4.030505	NUMEROUS	-0.2325634
-4.206596	NURSE	-0.1653378
-4.206596	NURSES	-0.3675535
-4.206596	NY	-0.2776493
-3.905566	O=	-0.7590678
-4.030505	OATH	-0.1492074
-4.206596	OB	-0.4769605
-3.808656	OBEDIENCE	-0.2648945
-4.206596	OBEY	-0.2050085
-3.331535	OBJECT	-0.3894802
-4.206596	OBJECTION	-0.1608561
-3.662529	OBJECTS	-0.4558234
-4.030505	OBLIGATION	-0.2875455
-3.808656	OBLIGED	-0.9458715
-4.206596	OBLIQUE	-0.4730663
-4.206596	OBNOXIOUS	-0.1776486
-3.905566	OBSCURE	-0.1443949
-3.808656	OBSERVATIONS	-0.4780098
-3.905566	OBSERVE	-0.3326275
-3.553384	OBSERVED	-0.2242493
-4.206596	OBSTACLE	-0.1663505
-4.206596	OBSTACLES	-0.1761067
-4.206596	OBSTINATE	-0.3490293
-4.030505	OBTAIN	-0.156852
-4.206596	OBTAINABLE	-0.1574182
-3.507627	OBTAINED	-0.1670069
-3.808656	OBTAINING	-0.2116914
-4.030505	OBTAINMENT	-0.7019597
-3.808656	OBVIOUS	-0.1597882
-4.206596	OBVIOUSLY	-0.1527392
-3.361499	OCCASION	-0.3836749
-3.905566	OCCASIONAL	-0.3019793
-4.030505	OCCASIONALLY	-0.1708447
-3.662529	OCCASIONED	-0.3134405
-4.030505	OCCASIONS	-0.1442929
-3.553384	OCCUPATION	-0.170488
-4.030505	OCCUPATIONS	-0.3164886
-3.808656	OCCUPIED	-0.5731829
-4.507627	OCCUPIER	-0.3205299
-4.030505	OCCUPY	-0.5207303
-3.905566	OCCUR	-0.1611647
-4.030505	OCCURRED	-0.4607056
-4.206596	OCCURS	-0.1748583
-4.206596	OCTOBER	-0.3531589
-4.206596	ODIOUS	-0.1570078
-1.565619	OF	-0.6182086
-3.905566	OF=	-0.7590678
-3.206597	OFF	-0.3614267
-3.145899	OFFENCE	-0.3253443
-3.016265	OFFENCES	-0.6361173
-4.206596	OFFEND	-0.156767
-3.662529	OFFENDER	-0.412369
-3.729475	OFFENDERS	-0.2482486
-4.507627	OFFENDER\'S	-0.3021821
-3.905566	OFFER	-0.2539603
-3.729475	OFFERED	-0.2522694
-4.206596	OFFERS	-0.1581673
-3.303507	OFFICE	-0.377104
-3.604537	OFFICER	-0.2953744
-3.662529	OFFICERS	-0.3447229
-3.905566	OFFICES	-0.2952923
-3.905566	OFFICIAL	-0.1515508
-4.206596	OFFSPRING	-0.1562
-3.466234	OFTEN	-0.2269734
-3.729475	OLD	-0.2975753
-4.507627	OMITS	-0.7697802
-4.206596	OMITTED	-0.2651742
-2.27463	ON	-0.6837392
-3.428445	ONCE	-0.3192413
-2.573128	ONE	-0.4532102
-4.507627	ONED	-0.1604348
-4.507627	ONERS	-0.1599007
-3.428445	ONES	-0.2996339
-3.662529	ONE\'S	-0.7306141
-2.767264	ONLY	-0.320048
-4.206596	ONS	-0.1726104
-4.206596	ONT	-0.6549858
-4.206596	OPE=	-0.4580378
-3.604537	OPEN	-0.2715658
-4.206596	OPENED	-0.1710915
-4.030505	OPERATE	-0.3493022
-4.206596	OPERATING	-0.1545798
-4.206596	OPERATION	-0.1356938
-4.030505	OPERATIONS	-0.1736745
-3.662529	OPINION	-0.2104057
-3.905566	OPPORTUNITIES	-0.4454687
-3.662529	OPPORTUNITY	-0.527779
-4.507627	OPPOSED	-0.478476
-4.206596	OPPOSITE	-0.1568803
-4.206596	OPPOSITION	-0.1670982
-4.206596	OPPRESSION	-0.1646288
-4.206596	OPPRESSIVE	-0.1679136
-4.507627	OPULENCE	-0.1778106
-1.989112	OR	-0.4162871
-4.206596	ORAL	-0.1568095
-3.428445	ORDER	-0.6233473
-3.604537	ORDERED	-0.1951047
-4.206596	ORDERS	-0.264364
-4.206596	ORDINANCES	-0.3164886
-3.808656	ORDINARILY	-0.2446445
-3.466234	ORDINARY	-0.3309842
-4.206596	ORIGI	-0.4769605
-4.206596	ORIGIN	-0.3374803
-3.808656	ORIGINAL	-0.1504598
-4.206596	ORIGINALLY	-0.156937
-2.976148	OTHER	-0.3211474
-3.228873	OTHERS	-0.4747131
-3.393683	OTHERWISE	-0.276537
-3.206597	OUGHT	-0.6985503
-4.507627	OUNT	-0.3300299
-2.989113	OUR	-0.5871282
-4.030505	OURSELVES	-0.156597
-4.206596	OUS	-0.1739333
-2.736775	OUT	-0.5369219
-4.030505	OUTRAGES	-0.1764859
-4.030505	OUTWEIGH	-0.3430511
-3.076263	OVER	-0.3730802
-4.206596	OVERSEER	-0.5662373
-3.729475	OWING	-0.6447586
-3.393683	OWN	-0.3821414
-3.808656	OWNER	-0.1300962
-4.206596	OWNERS	-0.3342585
-4.507627	OWNER\'S	-0.1567387
-3.303507	P	-1.024975
-3.729475	PAGE	-0.2433188
-3.729475	PAID	-0.5067164
-3.604537	PAIN	-0.5951507
-4.206596	PAINFUL	-0.1773109
-3.905566	PAINS	-0.142203
-4.507627	PAIR	-0.4669369
-3.662529	PANOPTICON	-0.2891717
-3.428445	PAPER	-0.3081292
-3.905566	PAPERS	-0.1755508
-3.905566	PAR	-0.5875399
-3.808656	PAR=	-0.935159
-4.030505	PARAGRAPH	-0.2787775
-4.206596	PARCELS	-0.1508764
-4.206596	PARDON	-0.1713793
-4.507627	PARISHIONERS	-0.4777054
-3.466234	PARLIAMENT	-0.276834
-4.206596	PARLIAMENTARY	-0.1777836
-2.976148	PART	-0.7481976
-3.905566	PARTED	-0.2897622
-3.905566	PARTIAL	-0.4628114
-4.206596	PARTICIPLE	-0.1612769
-4.206596	PARTICU=	-0.634129
-3.252354	PARTICULAR	-0.2569883
-3.729475	PARTICULARLY	-0.1467064
-3.905566	PARTICULARS	-0.1607297
-3.553384	PARTIES	-0.3816208
-3.729475	PARTLY	-0.3444584
-3.729475	PARTS	-0.3148083
-3.507627	PARTY	-0.3376969
-4.507627	PARTY\'S	-0.1763911
-3.808656	PASS	-0.2706435
-3.662529	PASSED	-0.2043411
-3.905566	PASSING	-0.5162029
-3.729475	PAST	-0.2202005
-4.206596	PATENT	-0.1650043
-4.206596	PATIENCE	-0.1659207
-4.507627	PAWNS	-0.4720804
-3.662529	PAY	-0.3201016
-3.905566	PAYABLE	-0.5946136
-3.808656	PAYING	-0.4690817
-3.808656	PAYMENT	-0.5853628
-4.030505	PAYMENTS	-0.4564917
-4.206596	PE	-0.1549641
-3.808656	PEACE	-0.1145462
-4.206596	PEACEABLE	-0.3023172
-4.206596	PEAR	-0.4687503
-3.905566	PECULIAR	-0.2923273
-4.206596	PECUNIARY	-0.177446
-4.507627	PELHAM	-0.2739875
-3.808656	PENAL	-0.2706581
-3.604537	PENALTIES	-0.2067667
-3.553384	PENALTY	-0.3318695
-4.030505	PENCE	-0.2567638
-4.206596	PENI	-0.6530517
-4.507627	PENIS	-0.1729654
-4.206596	PENITENT	-0.4769605
-3.303507	PENITENTIARY	-0.9256514
-4.030505	PENNY	-0.1496829
-4.507627	PENSION	-0.1574182
-4.206596	PEO	-0.1709956
-3.277178	PEOPLE	-0.2898223
-3.092653	PER	-0.6260836
-3.729475	PER=	-1.157008
-4.030505	PERFECT	-0.1567387
-3.662529	PERFECTLY	-0.170927
-4.507627	PERFIDIOUS	-0.1739061
-4.030505	PERFIDY	-0.3456862
-4.030505	PERFORM	-0.1493948
-3.662529	PERFORMED	-0.2933147
-3.303507	PERHAPS	-0.2481863
-4.206596	PERILOUS	-0.1738107
-3.466234	PERIOD	-0.2823539
-4.030505	PERIODS	-0.2402396
-3.808656	PERMISSION	-0.3928793
-4.507627	PERMIT	-0.3706379
-3.905566	PERMITTED	-0.4643909
-4.206596	PERNICIOUS	-0.1777026
-4.206596	PERPETRATED	-0.1593096
-4.206596	PERPETUAL	-0.1566253
-4.030505	PERPETUALLY	-0.1776756
-2.927843	PERSON	-0.5101768
-4.206596	PERSONAGE	-0.174736
-3.206597	PERSONAL	-0.8369929
-4.206596	PERSONALLY	-0.3537399
-2.905567	PERSONS	-0.5031198
-3.905566	PERSON\'S	-0.1755372
-3.905566	PERSUASION	-0.1240742
-4.507627	PERTY	-0.6430281
-4.030505	PETITIONS	-0.1647401
-3.729475	PETTY	-0.1560865
-4.206596	PHILADELPHIA	-0.1415432
-4.206596	PHRASES	-0.161389
-4.030505	PHYSICAL	-0.1771893
-4.206596	PICKED	-0.1734564
-4.206596	PICTURE	-0.1444387
-3.553384	PIECE	-0.8119682
-3.905566	PIECES	-0.4639302
-4.206596	PIRACY	-0.1569653
-4.206596	PITCH	-0.1641973
-4.507627	PITT\'S	-0.1776081
-3.030505	PLACE	-0.4147906
-4.030505	PLACED	-0.1461405
-3.808656	PLACES	-0.3306616
-4.507627	PLAGUE	-0.1709545
-3.905566	PLAIN	-0.3288305
-3.729475	PLAINLY	-0.3644178
-3.277178	PLAN	-0.2825023
-4.030505	PLANS	-0.1643783
-4.030505	PLANT	-0.1681207
-4.206596	PLANTATIONS	-0.1524245
-4.030505	PLAY	-0.3354713
-4.206596	PLE	-0.3826767
-3.905566	PLEASED	-0.5166794
-4.206596	PLEASURABLE	-0.1738516
-3.361499	PLEASURE	-0.430208
-4.206596	PLIGHT	-0.1762015
-4.206596	PLOW	-0.1706801
-4.206596	PLOY	-0.1630678
-4.206596	PLOYED	-0.1690444
-4.507627	PLOYING	-0.1764588
-4.206596	PLUNDERED	-0.1558878
-4.206596	PLUNDERING	-0.1700486
-4.030505	POCKET	-0.2332261
-3.252354	POINT	-0.643377
-4.030505	POINTED	-0.2940795
-3.729475	POINTS	-0.1928349
-3.905566	POLICE	-0.1309239
-3.905566	POLITICAL	-0.1768377
-3.905566	POLYGAMY	-0.2359058
-4.030505	POOR	-0.3000097
-4.507627	POORER	-0.1707624
-3.905566	POPULAR	-0.1481104
-4.206596	PORK	-0.3517777
-4.206596	PORTABLE	-0.1518518
-4.507627	PORTEND	-0.4580378
-3.808656	PORTION	-1.068997
-4.030505	PORTIONS	-0.3205299
-4.206596	PORTLAND	-0.3260621
-4.206596	POS	-0.7779905
-4.030505	POSE	-0.2941807
-4.206596	POSED	-0.1596756
-4.206596	POSES	-0.1599007
-3.905566	POSITIVE	-0.1560013
-4.206596	POSS	-0.1729654
-3.808656	POSSESS	-0.1632465
-4.030505	POSSESSED	-0.3565302
-3.662529	POSSESSES	-0.181623
-3.905566	POSSESSING	-0.1581814
-3.393683	POSSESSION	-0.4601611
-4.206596	POSSIBILITY	-0.4669369
-3.729475	POSSIBLE	-0.1686234
-4.206596	POSSIBLY	-0.1550068
-4.206596	POST	-0.1759305
-4.206596	POSTERIOR	-0.1675959
-4.206596	POSTPONED	-0.1523387
-3.905566	POUND	-0.5537426
-3.729475	POUNDS	-0.09531276
-3.060468	POWER	-0.6399738
-3.662529	POWERS	-0.4328314
-3.905566	PP	-0.1656016
-3.905566	PRAC=	-0.7590678
-3.808656	PRACTICAL	-0.2275951
-3.662529	PRACTICE	-0.301021
-4.030505	PRACTICES	-0.3257309
-4.030505	PRACTISE	-0.1684656
-3.905566	PRACTISED	-0.2945749
-4.030505	PRACTISING	-0.1695949
-3.729475	PRE	-0.6320854
-3.905566	PRE=	-0.935159
-3.808656	PRECAUTION	-0.3936272
-4.206596	PRECEDENT	-0.1709956
-4.030505	PRECEDING	-0.1466193
-4.507627	PRECEPTS	-0.1651433
-4.206596	PRECISION	-0.1508764
-4.206596	PREDECESSOR	-0.1644896
-4.206596	PREFERENCE	-0.1673471
-3.905566	PREJUDICE	-0.3385927
-4.030505	PREJUDICIAL	-0.1324997
-3.905566	PRELIMINARY	-0.3890161
-3.905566	PREMISES	-0.2113126
-4.507627	PREMISSES	-0.1459227
-3.808656	PREMIUM	-0.3550251
-4.206596	PREMIUMS	-0.1509195
-4.030505	PREPARATIONS	-0.2698289
-3.604537	PRESCRIBED	-0.2905066
-4.030505	PRESCRIBES	-0.1474018
-3.729475	PRESENCE	-0.3874382
-3.331535	PRESENT	-0.2384335
-3.604537	PRESENTED	-0.2639805
-4.030505	PRESENTLY	-0.1717353
-4.030505	PRESENTS	-0.305339
-4.206596	PRESERVING	-0.171023
-4.206596	PRESS	-0.1673471
-4.206596	PRESUMED	-0.2444709
-3.905566	PRESUMPTION	-0.433964
-3.905566	PRETENCE	-0.3824191
-4.206596	PRETENCES	-0.160196
-3.729475	PRETENDED	-0.4686674
-4.507627	PRETENSION	-0.1515221
-4.206596	PRETENSIONS	-0.1663228
-3.729475	PRETTY	-0.2742344
-4.507627	PREVAIL	-0.1596615
-4.030505	PREVENT	-0.5371588
-3.905566	PREVENTED	-0.2909843
-3.905566	PREVENTING	-0.4459348
-3.905566	PREVENTION	-0.6400494
-4.030505	PREVIOUS	-0.3436595
-4.030505	PRI	-0.6530517
-3.206597	PRICE	-0.5331085
-3.808656	PRICES	-0.5601692
-4.030505	PRIMA	-0.3538749
-4.507627	PRIMARY	-0.478395
-3.905566	PRINCIPAL	-0.3944045
-3.808656	PRINCIPALLY	-0.1524388
-3.808656	PRINCIPLE	-0.2865117
-3.905566	PRINCIPLES	-0.2075942
-4.206596	PRINTED	-0.1607718
-3.604537	PRISON	-0.1791043
-3.553384	PRISONER	-0.539709
-3.466234	PRISONERS	-0.308639
-4.030505	PRISONER\'S	-0.3328583
-3.729475	PRISONS	-0.2082553
-3.466234	PRIVATE	-0.2334331
-4.206596	PRIVATELY	-0.3330566
-4.206596	PRIVILEGED	-0.1772704
-4.030505	PRIVILEGES	-0.2402396
-4.206596	PRIVY	-0.4687503
-3.331535	PRO	-0.6758575
-3.662529	PRO=	-1.11125
-4.206596	PROBABILITY	-0.1644896
-3.729475	PROBABLE	-0.2493505
-3.808656	PROBABLY	-0.2022688
-3.905566	PROCEDURE	-0.2455548
-3.808656	PROCEED	-0.3199027
-4.030505	PROCEEDED	-0.3493841
-4.206596	PROCEEDINGS	-0.1620333
-3.808656	PROCESS	-0.3212435
-4.206596	PROCLAMATIONS	-0.1508764
-4.507627	PROCURING	-0.1567387
-3.466234	PRODUCE	-0.4086522
-3.808656	PRODUCED	-0.4362775
-4.030505	PRODUCES	-0.1743144
-4.030505	PRODUCING	-0.1513357
-4.507627	PRODUCTIVE	-0.4669369
-3.905566	PROFESSION	-0.3785732
-4.030505	PROFESSIONAL	-0.1566253
-4.206596	PROFESSIONS	-0.1403973
-3.604537	PROFIT	-0.3525938
-4.206596	PROFITABLE	-0.341554
-4.206596	PROHIBIT	-0.1725284
-4.206596	PROHIBITED	-0.2920798
-4.206596	PROJECT	-0.4630913
-3.662529	PROMISE	-0.4374816
-4.206596	PROMISING	-0.1570078
-4.206596	PROMISSORY	-0.1569653
-4.030505	PROMOTE	-0.4508712
-3.905566	PRONOUNCED	-0.2778352
-3.507627	PROOF	-0.2713313
-4.030505	PROOFS	-0.1429934
-3.165204	PROPER	-0.3565239
-3.905566	PROPERLY	-0.1718585
-4.206596	PROPERTIES	-0.1696499
-3.228873	PROPERTY	-0.481499
-3.729475	PROPORTION	-0.4308097
-3.905566	PROPORTIONABLE	-0.2463486
-4.507627	PROPORTIONABLY	-0.4788946
-4.030505	PROPORTIONED	-0.3435766
-3.553384	PROPOSAL	-0.4427199
-4.206596	PROPOSALS	-0.1558594
-3.507627	PROPOSED	-0.3680934
-4.030505	PROPOSER	-0.3150592
-4.206596	PROPOSER\'S	-0.2533794
-4.030505	PROPOSES	-0.1495821
-3.905566	PROPOSITION	-0.1281183
-4.030505	PROPOSITIONS	-0.13783
-3.729475	PROPRIETY	-0.1566679
-4.206596	PROSECUTE	-0.2575695
-3.729475	PROSECUTION	-0.4429692
-4.206596	PROTECTED	-0.1698424
-3.662529	PROTECTION	-0.2218444
-3.808656	PROVE	-0.1429056
-3.662529	PROVED	-0.2806136
-4.206596	PROVI=	-0.4580378
-4.206596	PROVID=	-0.4580378
-4.507627	PROVIDE	-0.296947
-3.252354	PROVIDED	-0.525327
-3.808656	PROVIDING	-0.2804431
-3.662529	PROVISION	-0.4470859
-4.206596	PROVISIONALLY	-0.1778241
-3.507627	PROVISIONS	-0.2638975
-4.206596	PROXIMITY	-0.1649765
-4.206596	PRUDENCE	-0.1632632
-4.206596	PRUDENT	-0.1672503
-4.206596	PU	-0.1709956
-4.030505	PU=	-0.634129
-4.206596	PUB	-0.4769605
-3.393683	PUBLIC	-0.2983379
-3.905566	PUBLIC-HOUSES	-0.5591187
-4.030505	PUBLISHED	-0.1474018
-4.030505	PULLED	-0.3468674
-3.662529	PUNISH	-0.2702951
-4.030505	PUNISH=	-0.8559778
-4.507627	PUNISHABLE	-0.4744591
-3.466234	PUNISHED	-0.3622656
-3.808656	PUNISHING	-0.2733526
-3.076263	PUNISHMENT	-0.438749
-4.030505	PUNISHMENTS	-0.1650321
-3.729475	PUR	-1.021029
-3.905566	PUR=	-0.8559778
-3.729475	PURCHASE	-0.1604524
-4.206596	PURCHASED	-0.5694426
-4.206596	PURCHASERS	-0.1558026
-4.030505	PURCHASING	-0.2424258
-3.277178	PURPOSE	-0.6156482
-4.030505	PURPOSELY	-0.2747224
-3.662529	PURPOSES	-0.4483594
-4.507627	PURSUANCE	-0.7702796
-3.808656	PURSUE	-0.1788159
-3.662529	PURSUED	-0.1617935
-3.206597	PUT	-0.3518804
-3.604537	PUTS	-0.2717611
-3.729475	PUTTING	-0.2691063
-4.507627	QU	-0.4672697
-4.206596	QUA	-0.1758356
-3.808656	QUALITY	-0.4169324
-4.507627	QUANTITIES	-0.4669369
-3.331535	QUANTITY	-0.8363411
-4.507627	QUANTUM	-0.3730697
-4.507627	QUARTER	-0.3257309
-3.905566	QUARTERLY	-0.4626853
-4.507627	QUARTERS	-0.1554617
-4.030505	QUASI	-0.4788136
-4.507627	QUES=	-0.4580378
-4.030505	QUEST	-0.4910242
-3.604537	QUESTION	-0.2638369
-3.905566	QUESTIONS	-0.251034
-4.206596	QUIT	-0.3432033
-3.729475	QUITE	-0.4191989
-4.206596	QUOTED	-0.1716669
-4.507627	R	-0.634129
-4.206596	RA=	-0.4580378
-4.030505	RAGE	-0.1520094
-4.030505	RAISED	-0.1525533
-4.206596	RAL	-0.1603224
-4.206596	RALLY	-0.1567954
-4.507627	RANCE	-0.4669369
-3.553384	RANK	-0.260249
-4.507627	RANKED	-0.1754965
-3.905566	RAPE	-0.2759078
-4.206596	RARE	-0.1602381
-3.604537	RATE	-0.4673113
-4.507627	RATES	-0.1672365
-3.428445	RATHER	-0.3935019
-4.030505	RATIONAL	-0.4704736
-4.507627	RATIVELY	-0.176513
-4.206596	RATTLE	-0.4630913
-4.206596	RAVISHED	-0.1720363
-3.604537	RE	-0.7730281
-3.729475	RE=	-1.002106
-4.030505	REACH	-0.4562643
-3.905566	READ	-0.3858371
-3.808656	READER	-0.2316213
-4.206596	READINESS	-0.4400718
-4.507627	READING	-0.4788541
-3.604537	REAL	-0.3354634
-4.507627	REALITY	-0.1720773
-3.905566	REALLY	-0.1727333
-4.507627	REALM	-0.1562
-4.206596	REAPS	-0.1729517
-3.303507	REASON	-0.482205
-3.905566	REASONABLE	-0.1655321
-4.206596	REASONABLY	-0.8749412
-3.729475	REASONS	-0.6165613
-4.507627	RECAPITULATORY	-0.3498884
-4.206596	RECAPTURE	-0.341901
-4.030505	RECEIPT	-0.3205299
-3.662529	RECEIVE	-0.4482001
-3.228873	RECEIVED	-0.1674199
-4.206596	RECEIVES	-0.1753201
-3.604537	RECEIVING	-0.3774712
-4.206596	RECENT	-0.1775676
-4.206596	RECEPTACLES	-0.3284299
-4.206596	RECEPTION	-0.92259
-4.507627	RECKONED	-0.3507729
-4.206596	RECKONING	-0.7776786
-4.507627	RECOMMEND	-0.4473737
-4.030505	RECOMMENDATION	-0.1430665
-4.206596	RECOURSE	-0.4687503
-4.206596	RECREATION	-0.1761067
-3.662529	REDUCED	-0.4153841
-4.206596	REDUCIBLE	-0.6448415
-3.808656	REDUCTION	-0.3931869
-3.905566	REFER	-0.2535353
-4.507627	REFERABLE	-0.4687503
-4.206596	REFEREES	-0.6379773
-3.808656	REFERENCE	-0.456648
-3.553384	REFORMATION	-0.3420398
-4.206596	REFORMATORY	-0.4574852
-4.030505	REFORMED	-0.1711875
-4.507627	REFORMING	-0.4786516
-4.030505	REFUSE	-0.3436043
-4.206596	REFUSED	-0.1580402
-4.206596	REFUSES	-0.1463437
-3.808656	REGARD	-0.9978721
-4.206596	REGARDED	-0.1644757
-4.206596	REGARDING	-0.4095865
-4.030505	REGISTERED	-0.3431618
-4.206596	REGULAR	-0.4788946
-3.604537	REGULATIONS	-0.2309948
-3.905566	REIGN	-0.2974063
-4.206596	REJECTED	-0.1691958
-3.729475	RELATION	-0.6185765
-4.030505	RELATIONS	-0.2741317
-3.905566	RELATIONSHIP	-0.2459732
-3.303507	RELATIVE	-1.417207
-4.206596	RELEVANT	-0.1463437
-3.729475	RELIEF	-0.1862909
-4.206596	RELIGION	-0.4730663
-4.206596	RELINQUISHMENT	-0.1741375
-3.662529	REMAIN	-0.3068111
-3.808656	REMAINDER	-0.9244951
-4.206596	REMAINDERS	-0.4539265
-4.030505	REMAINED	-0.2976993
-3.729475	REMAINING	-0.4090543
-3.905566	REMAINS	-0.1669183
-3.905566	REMEDY	-0.200561
-4.206596	REMEMBER	-0.1578848
-4.507627	REMOVAL	-0.6215599
-4.507627	REMOVE	-0.3412067
-4.030505	REMOVED	-0.3165327
-4.206596	REMY	-0.5698669
-3.905566	RENDER	-0.3385023
-4.030505	RENDERED	-0.1458937
-4.030505	RENDERS	-0.6511226
-4.206596	RENT	-0.176743
-4.507627	REPAIRING	-0.1403973
-4.507627	REPEAL	-0.6430281
-4.507627	REPEATEDLY	-0.156937
-4.206596	REPENTANCE	-0.1578282
-4.507627	REPLACE	-0.1498412
-3.662529	REPORT	-0.3664397
-4.206596	REPORTS	-0.3413179
-4.206596	REPRESENTATIONS	-0.1613189
-4.206596	REPRESENTATIVE	-0.1767025
-3.729475	REPRESENTATIVES	-0.3992704
-4.030505	REPRESENTED	-0.1507328
-4.206596	REPRIEVED	-0.4785976
-3.905566	REPROACH	-0.1484427
-4.206596	REPUBLISH	-0.1720363
-4.030505	REPUGNANT	-0.6448415
-3.662529	REPUTATION	-0.2863225
-3.466234	REQUIRE	-0.361563
-3.808656	REQUIRED	-0.3607312
-4.030505	REQUIRES	-0.148096
-4.206596	REQUIRING	-0.173211
-3.729475	REQUISITE	-0.5661656
-4.206596	REQUISITION	-0.1617673
-4.030505	RES	-0.4769605
-4.206596	RESEMBLING	-0.4784085
-4.206596	RESERVED	-0.1631934
-4.206596	RESISTANCE	-0.1569512
-4.030505	RESOLUTION	-0.1718174
-4.206596	RESORT	-0.1626906
-3.604537	RESPECT	-0.6827096
-4.030505	RESPECTABLE	-0.3017494
-4.206596	RESPECTING	-0.1709819
-3.905566	RESPECTIVE	-0.2529255
-3.428445	RESPECTIVELY	-0.4165899
-4.206596	RESPECTS	-0.1578848
-4.507627	RESPONSIBILITY	-0.2335694
-3.507627	RESPONSIBLE	-0.3288988
-3.808656	REST	-0.2393069
-4.206596	RESTRAIN	-0.1554759
-3.905566	RESTRICTIONS	-0.3395908
-4.206596	RESTRICTIVE	-0.4672697
-4.030505	RESULT	-0.3739921
-4.206596	RESULTING	-0.4766486
-4.030505	RESULTS	-0.1711053
-4.507627	RETAINED	-0.4632872
-4.206596	RETALIATION	-0.1728698
-3.553384	RETURN	-0.2506194
-4.206596	RETURNING	-0.3640224
-4.206596	REVD	-0.1661703
-4.206596	REVEALED	-0.1724054
-4.206596	REVENGE	-0.1770947
-4.030505	REVIEW	-0.274175
-4.507627	REVOLTED	-0.1777971
-4.206596	RICH	-0.1579413
-4.206596	RIDING	-0.1754015
-4.507627	RIES	-0.4770012
-3.277178	RIGHT	-0.3908903
-3.905566	RIGHTS	-0.1231721
-4.030505	RING	-0.1398084
-4.030505	RIPE	-0.1642112
-3.905566	RISE	-0.1378005
-4.507627	RISES	-0.4730663
-4.206596	RISK	-0.1642251
-4.507627	RITIES	-0.1614731
-4.206596	RIVAL	-0.1570078
-4.030505	RIVER	-0.3335378
-4.030505	ROAD	-0.3310696
-4.030505	ROB=	-0.634129
-4.030505	ROBBED	-0.1591124
-4.206596	ROBBER	-0.4672697
-3.729475	ROBBERY	-0.1449485
-3.604537	ROOM	-0.1198379
-4.206596	ROOTS	-0.1658098
-4.030505	ROSE	-0.1542095
-4.206596	ROUND	-0.1607297
-3.905566	RUIN	-0.1465178
-4.206596	RUINED	-0.1738107
-3.303507	RULE	-0.4659488
-3.393683	RULES	-0.4169635
-3.729475	RUN	-0.147937
-4.507627	RUNS	-0.33283
-4.206596	RUSSIA	-0.3471965
-4.206596	RY	-0.1659207
-4.030505	S	-0.8651542
-4.206596	SA	-0.4720256
-4.030505	SACRIFICE	-0.2567938
-4.206596	SACRIFICED	-0.1512927
-3.252354	SAID	-0.7441412
-4.206596	SAILED	-0.1711464
-3.905566	SAKE	-0.6702602
-4.030505	SALE	-0.3205299
-3.808656	SALT	-0.4787056
-3.905566	SALUTARY	-0.177365
-3.662529	SAME	-0.3531485
-3.905566	SAMUEL	-0.7749434
-4.206596	SANCTION	-0.1608561
-4.206596	SARY	-0.1523387
-3.662529	SATISFACTION	-0.36348
-4.030505	SATISFACTORY	-0.1612208
-4.206596	SATISFIED	-0.1581673
-4.507627	SATYRE	-0.1710093
-4.507627	SAVAGE	-0.1662397
-3.905566	SAVE	-0.2701728
-3.905566	SAVED	-0.3941872
-4.030505	SAVING	-0.1696224
-3.905566	SAW	-0.2608426
-3.428445	SAY	-0.2871889
-4.206596	SAYING	-0.159056
-3.604537	SAYS	-0.2480922
-3.808656	SCARCE	-0.4564917
-3.808656	SCARCELY	-0.2450604
-4.030505	SCARCITY	-0.3732992
-3.905566	SCENE	-0.1267238
-4.206596	SCHEME	-0.1608561
-4.206596	SCHOLARS	-0.1499852
-3.905566	SCHOOL	-0.1884495
-4.206596	SCHOOLMASTER	-0.3477581
-4.507627	SCHOOLMASTERS	-0.4710511
-3.905566	SCHOOLS	-0.8610314
-3.905566	SCORE	-0.3003488
-4.507627	SCOTLAND	-0.1592251
-4.507627	SCRAPS	-0.4669369
-3.905566	SE	-0.3813554
-4.030505	SE=	-0.634129
-4.206596	SEARCH	-0.1487892
-3.604537	SEASON	-0.326993
-3.905566	SECOND	-0.340334
-4.507627	SECONDARY	-0.6546888
-4.206596	SECRET	-0.1513931
-3.808656	SECRETARY	-0.5150455
-3.507627	SECT	-0.7217082
-4.206596	SECURE	-0.4509144
-4.206596	SECURED	-0.1768783
-3.466234	SECURITY	-0.5289504
-4.206596	SED	-0.1737971
-4.030505	SEDUCTION	-0.3363294
-3.145899	SEE	-0.4423384
-3.905566	SEEING	-0.2382091
-4.206596	SEEK	-0.1498412
-3.507627	SEEM	-0.2008968
-4.030505	SEEMED	-0.177365
-3.507627	SEEMS	-0.4948564
-3.553384	SEEN	-0.2553842
-4.030505	SEES	-0.1564411
-4.030505	SEIZED	-0.7116245
-4.507627	SEIZIN	-0.6491575
-3.808656	SELDOM	-0.1611507
-3.905566	SELF	-0.3065067
-4.206596	SELL	-0.1766348
-4.030505	SELLING	-0.156356
-4.030505	SELVES	-0.1601679
-4.206596	SEMI-PUBLIC	-1.177459
-3.428445	SENSE	-0.2518257
-4.206596	SENSES	-0.1771623
-3.729475	SENSIBLE	-0.2559529
-3.553384	SENT	-0.2717652
-3.808656	SENTENCE	-0.4003956
-4.206596	SENTENCED	-0.4687503
-4.206596	SENTENCES	-0.1539387
-4.507627	SENTENTIO	-0.1778376
-4.030505	SENTIMENTS	-0.1441616
-3.808656	SEPARATE	-0.1891893
-4.206596	SEPARATED	-0.6527399
-4.030505	SEPARATION	-0.2418439
-4.206596	SEPTR	-0.1656849
-4.206596	SERIOUS	-0.1765942
-4.206596	SERIOUSLY	-0.1778106
-3.507627	SERVANT	-0.2886547
-3.808656	SERVANTS	-0.3031641
-3.507627	SERVE	-0.4084612
-4.206596	SERVED	-0.1607297
-4.206596	SERVES	-0.4774211
-3.466234	SERVICE	-0.2704925
-3.553384	SERVICES	-0.250178
-4.206596	SES	-0.4747862
-4.507627	SESSED	-0.1631795
-4.206596	SESSION	-0.3257309
-3.331535	SET	-0.2899812
-3.905566	SETS	-0.1566962
-3.905566	SETTING	-0.2490483
-4.507627	SETTLE	-0.3463596
-3.662529	SETTLED	-0.4741427
-4.030505	SETTLEMENT	-0.1369709
-3.808656	SETTLER	-0.1371488
-3.808656	SETTLERS	-0.4018511
-3.662529	SEVEN	-0.603358
-4.206596	SEVENTH	-0.1444387
-3.252354	SEVERAL	-0.2836176
-3.729475	SEVERE	-0.2597336
-3.905566	SEVERELY	-0.2790912
-4.030505	SEVERER	-0.1762828
-4.206596	SEVERITY	-0.1551206
-3.905566	SEX	-0.3068798
-2.539144	SHALL	-0.7925478
-4.206596	SHAME	-0.1717216
-4.206596	SHAPE	-0.1496397
-3.729475	SHARE	-0.4921426
-4.507627	SHARPER	-0.172665
-3.604537	SHARPING	-0.2990636
-3.428445	SHE	-0.3190407
-4.206596	SHEEP	-0.1499852
-4.206596	SHEETING	-0.1724874
-4.206596	SHERIFF	-0.6505231
-4.030505	SHEW	-0.1569087
-3.808656	SHEWING	-0.3292592
-3.662529	SHEWN	-0.124059
-4.206596	SHEWS	-0.350188
-3.905566	SHILLINGS	-0.144832
-3.808656	SHIP	-0.1400147
-3.662529	SHIPS	-0.1524818
-4.507627	SHIRT	-0.4762551
-4.206596	SHOOTING	-0.1593096
-4.030505	SHOP	-0.246348
-4.507627	SHOPMAN	-0.4744319
-3.729475	SHORT	-0.14559
-4.206596	SHOT	-0.1578424
-2.708286	SHOULD	-0.6855279
-4.206596	SHOWN	-0.1596756
-3.905566	SI	-0.4788811
-3.553384	SIDE	-0.2680523
-4.507627	SIDERABLE	-0.353213
-4.030505	SIDES	-0.1474162
-4.206596	SIGHT	-0.1270729
-3.905566	SIGNATURE	-0.3237535
-3.808656	SIGNED	-0.2603406
-3.905566	SIGNIFICATION	-0.2220869
-4.030505	SIGNIFIED	-0.1619913
-3.905566	SIGNIFY	-0.1559588
-3.729475	SIGNS	-0.2671212
-4.206596	SILENT	-0.1720363
-3.662529	SILVER	-0.3955844
-4.206596	SILVERSMITH	-0.172665
-4.206596	SIM=	-0.634129
-4.030505	SIMILAR	-0.1674024
-3.604537	SIMPLE	-0.5790046
-4.030505	SIMPLICITY	-0.4658396
-4.206596	SIMPLY	-0.1640719
-3.393683	SINCE	-0.1960698
-4.507627	SINCERITY	-0.4669369
-4.507627	SINESS	-0.1539387
-3.662529	SINGLE	-0.3578697
-4.206596	SINKING	-0.3373962
-4.507627	SION	-0.1423787
-4.507627	SIONERS	-0.1721594
-3.729475	SIR	-0.1619913
-4.030505	SIT	-0.286734
-4.206596	SITUATED	-0.1560014
-3.553384	SITUATION	-0.235564
-4.206596	SITUATIONS	-0.1758627
-3.393683	SIX	-0.5150233
-4.206596	SIZE	-0.1499852
-4.030505	SKILL	-0.1340251
-4.030505	SLAVE	-0.1768783
-4.507627	SLAVES	-0.1659207
-3.905566	SLIGHT	-0.2746072
-4.206596	SLIP	-0.1756186
-3.428445	SMALL	-0.2263858
-3.905566	SMALLER	-0.1481393
-4.206596	SNATCHES	-0.478368
-2.525355	SO	-0.5132642
-4.206596	SOCIETY	-0.6391826
-4.030505	SOEVER	-0.3383484
-4.030505	SOLD	-0.1603646
-4.030505	SOLDIERS	-0.3372139
-3.808656	SOLE	-0.3189569
-4.030505	SOLITUDE	-0.1479515
-4.206596	SOLUTIONS	-0.1655322
-2.939425	SOME	-0.3463347
-4.206596	SOMEBODY	-0.1727879
-3.228873	SOMETHING	-0.355417
-3.729475	SOMETIMES	-0.2854438
-4.030505	SOMEWHAT	-0.1776081
-4.206596	SOMEWHERE	-0.1709682
-4.030505	SON	-0.2998796
-4.206596	SONAL	-0.1758898
-4.507627	SONERS	-0.1682587
-4.206596	SONS	-0.1279064
-3.905566	SOON	-0.5042492
-4.507627	SOONER	-0.3319933
-3.428445	SORT	-0.4198268
-3.808656	SORTS	-0.7516996
-4.206596	SOUGHT	-0.1523387
-4.206596	SOUNDS	-0.1574182
-3.905566	SOURCE	-0.3636853
-4.030505	SOURCES	-0.3300299
-4.507627	SOUTH	-1.08637
-3.905566	SOVEREIGN	-0.4037819
-3.729475	SPACE	-0.4816267
-4.206596	SPARE	-0.1564694
-4.206596	SPE=	-0.4580378
-3.808656	SPEAK	-0.7653092
-3.729475	SPEAKING	-0.2273062
-3.662529	SPECIAL	-0.3733623
-3.393683	SPECIES	-0.4651298
-4.206596	SPECIFIC	-0.156852
-4.030505	SPECIFICATION	-0.1374451
-4.030505	SPECIFIED	-0.1395432
-4.507627	SPECTIVELY	-0.1620193
-3.662529	SPEECH	-0.2638012
-3.905566	SPIRIT	-0.6937077
-4.507627	SPIRITUAL	-0.4778407
-3.808656	SPOKEN	-0.4445349
-4.206596	SPONTANEOUSLY	-0.1674992
-4.206596	SPOON	-0.1660178
-4.030505	SPORTS	-0.1514935
-3.808656	SPOT	-0.2282877
-4.206596	SPREAD	-0.1729244
-4.507627	SPUR	-0.4669369
-3.905566	SPURIOUS	-0.2218089
-4.507627	ST	-0.4788811
-4.030505	STAGE	-0.1391303
-4.206596	STAKE	-0.1437093
-4.206596	STAMP	-0.1560865
-4.206596	STANCE	-0.1504597
-4.030505	STANCES	-0.1237075
-3.466234	STAND	-0.4799495
-4.206596	STANDARD	-0.6481717
-3.604537	STANDING	-0.1872421
-3.553384	STANDS	-0.1732058
-4.206596	STAT	-0.4672697
-3.092653	STATE	-0.4327664
-4.507627	STATE-TUMULTS	-0.4672697
-3.604537	STATED	-0.2040309
-3.905566	STATEMENT	-0.4628673
-3.553384	STATES	-0.1079229
-4.030505	STATING	-0.3376344
-4.030505	STATION	-0.1493804
-3.729475	STATUTE	-0.5529996
-4.206596	STEAD	-0.1496397
-4.206596	STEAL	-0.1759169
-3.905566	STEALING	-0.6383682
-3.808656	STEPS	-0.1189887
-3.905566	STICK	-0.2744344
-4.206596	STILE	-0.1458501
-4.030505	STILED	-0.1766889
-3.303507	STILL	-0.2009932
-4.206596	STIPULATED	-0.2769481
-3.361499	STOCK	-0.4361808
-4.206596	STOCKING	-0.4337844
-3.905566	STOLEN	-0.1510487
-4.206596	STONE	-0.3411789
-4.206596	STOOD	-0.1777701
-3.905566	STOP	-0.2346714
-4.206596	STOPPED	-0.1659762
-4.507627	STOPPING	-0.3320642
-4.206596	STORE	-0.2909892
-4.030505	STORES	-0.1487747
-4.206596	STORMS	-0.4672697
-4.206596	STORY	-0.4748816
-4.206596	STRAIN	-0.4630913
-4.206596	STRANGER	-0.2753841
-4.030505	STRANGERS	-0.1613049
-3.808656	STREET	-0.2188276
-4.507627	STREETS	-0.1487603
-4.030505	STRENGTH	-0.1334575
-4.507627	STRETCH	-0.1757814
-4.206596	STRICT	-0.1776216
-4.206596	STRICTLY	-0.1719542
-4.206596	STRICTNESS	-0.1760254
-3.905566	STRIKING	-0.5688944
-4.507627	STRIPE	-0.1775001
-4.206596	STRIPES	-0.3276134
-4.030505	STRONGER	-0.2787918
-3.808656	SUB	-0.6530517
-3.165204	SUBJECT	-0.3765425
-4.206596	SUBJECTED	-0.6448415
-3.905566	SUBJECTING	-0.2615527
-3.729475	SUBJECTS	-0.1517372
-4.206596	SUBJOIN	-0.1770947
-4.206596	SUBMERSION	-0.1499852
-4.206596	SUBMITS	-0.1677203
-4.507627	SUBMITT	-0.4687503
-4.030505	SUBORDINATE	-0.1293121
-3.905566	SUBORDINATES	-0.2015107
-4.206596	SUBORNER	-0.163612
-3.604537	SUBSEQUENT	-0.4007969
-4.206596	SUBSERVIENCE	-0.4579953
-4.507627	SUBSIDIARY	-0.1778241
-4.206596	SUBSIST	-0.4739954
-4.206596	SUBSISTING	-0.1568945
-3.905566	SUBSTANCE	-0.2215948
-4.206596	SUBSTANCES	-0.1447883
-4.030505	SUBSTITUTE	-0.1516655
-4.507627	SUBSTITUTED	-0.1528965
-4.030505	SUC	-0.6530517
-4.206596	SUCCEED	-0.1660317
-4.206596	SUCCESS	-0.1610104
-4.030505	SUCCESSION	-0.1429349
-4.507627	SUCCESSIVE	-0.1567529
-4.030505	SUCCESSIVELY	-0.4434088
-4.030505	SUCCESSOR	-0.2816916
-3.662529	SUCCESSORS	-0.6139017
-2.494789	SUCH	-0.5264246
-4.030505	SUDDEN	-0.1619213
-4.206596	SUED	-0.1667522
-4.030505	SUF=	-0.7590678
-3.553384	SUFFER	-0.3280109
-3.905566	SUFFERED	-0.2240715
-4.507627	SUFFERER	-0.3421646
-4.030505	SUFFERERS	-0.1533536
-4.030505	SUFFERING	-0.1360357
-4.206596	SUFFERS	-0.1694573
-3.303507	SUFFICIENT	-0.4612596
-4.030505	SUFFICIENTLY	-0.1777566
-4.030505	SUGGESTIONS	-0.1715984
-3.729475	SUIT	-0.3871171
-3.507627	SUM	-0.6328459
-4.206596	SUMMER	-0.1654766
-4.030505	SUMMONED	-0.1661149
-4.030505	SUMMONS	-0.3811442
-3.905566	SUMS	-0.5397765
-4.206596	SUNDAY	-0.1569512
-4.507627	SUNDAYS	-0.2839242
-4.507627	SUPERANNUATION	-0.4580378
-4.030505	SUPERINTENDENCE	-0.6491575
-3.507627	SUPERIOR	-0.4437455
-4.507627	SUPERNUMERA	-0.4769605
-3.729475	SUPERNUMERARIES	-0.4836283
-3.905566	SUPERNUMERARY	-0.3973436
-4.030505	SUPPLEMENTAL	-0.5755886
-3.905566	SUPPLIED	-0.3441641
-3.729475	SUPPLY	-0.1803987
-4.030505	SUPPORT	-0.1501578
-3.507627	SUPPOSE	-0.3284996
-3.553384	SUPPOSED	-0.2479424
-3.905566	SUPPOSING	-0.1441763
-4.030505	SUPPOSITION	-0.3295058
-4.030505	SUPPRESSION	-0.7679669
-3.729475	SURE	-0.3369193
-3.808656	SURELY	-0.1451086
-3.905566	SURGEON	-0.2609597
-4.206596	SURPRIZE	-0.1719953
-4.507627	SURRY	-0.4580378
-4.206596	SURVIVOR	-0.7199347
-4.030505	SUSCEPTIBLE	-0.307466
-4.030505	SUSPECT	-0.2326782
-4.507627	SUSPENDED	-0.6505504
-3.729475	SUSPICION	-0.1238603
-3.905566	SUSTAINED	-0.1142026
-4.206596	SYMPATHY	-0.1635841
-3.393683	SYSTEM	-0.5226065
-4.206596	TACITLY	-0.4788406
-4.507627	TAIN	-0.1743008
-4.206596	TAINED	-0.1558026
-3.109686	TAKE	-0.5280487
-3.206597	TAKEN	-0.4589049
-4.507627	TAKER	-0.1560581
-3.361499	TAKES	-0.3744324
-3.393683	TAKING	-0.3071463
-4.030505	TALENTS	-0.3454523
-4.507627	TANCE	-0.1696912
-4.030505	TASK	-0.1548788
-4.507627	TASKMASTER	-0.3284013
-4.507627	TATION	-0.4776513
-3.808656	TAX	-0.2503778
-4.030505	TAXES	-0.4510152
-4.206596	TEA	-0.1403973
-4.206596	TECHNICAL	-0.1544802
-4.507627	TECTION	-0.1659762
-4.206596	TEDIOUS	-0.1508764
-3.905566	TELL	-0.2816066
-4.030505	TELLING	-0.3469909
-4.206596	TELLS	-0.1766619
-4.507627	TEMPEST	-0.1621033
-4.206596	TEMPORARY	-0.1771758
-4.206596	TEMPORE	-0.1620613
-3.905566	TEMPTATION	-0.2652559
-3.729475	TEN	-0.359468
-4.206596	TEND	-0.1675683
-4.206596	TENDED	-0.1447155
-3.604537	TENDENCY	-0.5184869
-4.030505	TENDER	-0.1487315
-4.206596	TENDS	-0.4687503
-4.507627	TENTIARY	-0.3535778
-4.507627	TENTIONS	-0.4672697
-4.507627	TER	-0.1727059
-3.553384	TERM	-0.4971918
-4.206596	TERMED	-0.1776081
-3.361499	TERMS	-0.404379
-4.030505	TERROR	-0.1350391
-4.030505	TESTICULUS	-0.3539019
-3.808656	TESTIMONY	-0.1311794
-4.507627	TEXT	-0.1447883
-4.507627	THAM	-0.1381407
-2.722297	THAN	-0.4992064
-2.094327	THAT	-0.4673044
-1.806923	THE	-0.6450908
-4.507627	THEATRE	-0.1447446
-3.206597	THEFT	-0.7040808
-2.767264	THEIR	-0.3887622
-2.644304	THEM	-0.3980633
-3.060468	THEMSELVES	-0.2065211
-2.905567	THEN	-0.3682302
-4.206596	THENCE	-0.1724328
-4.206596	THER	-0.2143425
-2.644304	THERE	-0.629565
-3.662529	THEREBY	-0.2774921
-2.916562	THEREFORE	-0.4085476
-3.393683	THEREIN	-0.559698
-3.303507	THEREOF	-0.4421091
-3.905566	THEREON	-0.4517915
-3.808656	THERETO	-0.3321777
-4.030505	THEREUNTO	-0.8181611
-4.206596	THEREUPON	-0.1727879
-4.206596	THEREWITH	-0.1663366
-2.894843	THESE	-0.2712407
-2.632565	THEY	-0.6147771
-4.206596	THIEF	-0.1346963
-3.303507	THING	-0.3470723
-3.393683	THINGS	-0.2502502
-3.428445	THINK	-0.3767523
-3.808656	THINKS	-0.4029528
-3.808656	THIRD	-0.1954815
-4.206596	THIRTY	-0.478476
-2.573128	THIS	-0.3145482
-4.030505	THITHER	-0.1361695
-3.604537	THO	-1.080941
-2.939425	THOSE	-0.4503732
-3.303507	THOUGH	-0.4289212
-3.428445	THOUGHT	-0.3070903
-3.905566	THOUGHTS	-0.2253157
-3.553384	THOUSAND	-0.5069208
-4.030505	THREAT	-0.1558878
-3.808656	THREATENED	-0.4560368
-4.206596	THREATENS	-0.1558878
-4.206596	THREATNED	-0.1561574
-3.905566	THREATS	-0.1623171
-3.303507	THREE	-0.3223523
-3.662529	THROUGH	-0.2516403
-4.206596	THROUGHOUT	-0.1549783
-3.905566	THROW	-0.1472569
-3.905566	THROWN	-0.1656848
-3.060468	THUS	-0.2336453
-4.206596	TICE	-0.1551206
-4.507627	TICULAR	-0.1609823
-4.206596	TIGHTNESS	-0.4730663
-3.466234	TILL	-0.3863793
-2.963558	TIME	-0.4284783
-3.361499	TIMES	-0.2929545
-4.206596	TING	-0.1662812
-4.030505	TION	-0.3140463
-4.507627	TIONED	-0.1617393
-4.206596	TIONS	-0.2890337
-3.905566	TIT	-1.005842
-3.331535	TITLE	-0.383704
-3.808656	TITLES	-0.1523673
-4.030505	TIVE	-0.1507471
-1.636054	TO	-0.7685822
-4.030505	TOGE	-0.6530517
-3.206597	TOGETHER	-0.599393
-3.604537	TOLD	-0.1682863
-3.076263	TOO	-0.2002334
-3.808656	TOOK	-0.3176033
-4.206596	TOOL	-0.1545371
-4.030505	TOR	-0.1443949
-4.507627	TORS	-0.1687964
-3.905566	TOTAL	-0.4072281
-4.206596	TOUCH	-0.176188
-4.030505	TOUCHED	-0.1724738
-4.206596	TOUCHING	-0.6481717
-4.206596	TOWARD	-0.3471006
-3.553384	TOWARDS	-0.4114097
-4.206596	TOWN	-0.29773
-3.604537	TRADE	-0.1146279
-3.808656	TRADERS	-0.3013908
-4.030505	TRADES	-0.2933767
-4.030505	TRAFFIC	-0.333976
-4.206596	TRAIN	-0.4669369
-4.206596	TRANQUILLITY	-0.1513357
-4.030505	TRANS	-0.6530517
-4.206596	TRANSACTION	-0.1685759
-4.030505	TRANSLATED	-0.1293121
-4.030505	TRANSPORTABLE	-0.5697163
-3.729475	TRANSPORTATION	-0.1706292
-4.030505	TRANSPORTED	-0.2763031
-4.030505	TREASON	-0.216933
-4.507627	TREASURER	-0.4744319
-4.030505	TREASURY	-0.3543785
-4.507627	TREAT	-0.1680793
-4.030505	TREATED	-0.143972
-4.030505	TREATMENT	-0.1362586
-4.206596	TREATY	-0.4630913
-4.206596	TREE	-0.1727879
-4.507627	TRESPASS	-0.1756457
-3.662529	TRIAL	-0.3294297
-4.206596	TRIED	-0.1616693
-4.206596	TRIFLING	-0.1709956
-3.466234	TROUBLE	-0.2921625
-3.905566	TROUBLESOME	-0.1227739
-4.206596	TRUCE	-0.6433609
-3.393683	TRUE	-0.4571945
-3.729475	TRUST	-0.448258
-4.030505	TRUSTED	-0.163835
-3.729475	TRUTH	-0.1630521
-4.030505	TRY	-0.1742328
-4.206596	TRYING	-0.1672227
-4.030505	TUMULTUOUS	-0.1719406
-4.206596	TURE	-0.1555612
-3.662529	TURN	-0.2916439
-3.905566	TURNED	-0.2142183
-4.206596	TURNING	-0.1698974
-4.030505	TURNS	-0.1656571
-4.206596	TURPENTINE	-0.1570078
-4.206596	TWELVE	-0.3515607
-3.729475	TWENTY	-0.2527552
-4.030505	TWICE	-0.2879646
-2.939425	TWO	-0.4323502
-4.206596	TY	-0.1754422
-4.206596	TYRANNY	-0.1702683
-4.507627	T\'OTHER	-0.4786111
-4.206596	U=	-0.4580378
-4.206596	ULTIMATELY	-0.1776891
-4.206596	UMPIRE	-0.5789939
-3.604537	UN	-0.7730556
-3.905566	UN=	-0.7590678
-3.808656	UNABLE	-0.3511609
-4.206596	UNAVOIDABLE	-0.1765942
-4.206596	UNCERTAIN	-0.1768242
-3.905566	UNCOMMON	-0.3225511
-4.206596	UNCORRUPTED	-0.1618933
-2.650294	UNDER	-0.6446874
-4.206596	UNDER=	-0.4580378
-4.507627	UNDERGO	-0.3430096
-4.206596	UNDERGONE	-0.27626
-3.662529	UNDERSTAND	-0.2740561
-3.729475	UNDERSTANDING	-0.1820236
-4.507627	UNDERSTANDS	-0.4720804
-3.553384	UNDERSTOOD	-0.1243084
-4.206596	UNDISTINGUISHABLY	-0.4763229
-3.905566	UNEASINESS	-0.2578362
-4.507627	UNHAPP.SS	-0.1768242
-4.030505	UNHAPPINESS	-0.4709824
-4.206596	UNIFORM	-0.1508764
-4.030505	UNINTELLIGIBLE	-0.1338161
-4.206596	UNINTENTIONAL	-0.1596615
-3.729475	UNIVERSAL	-0.3105192
-4.030505	UNIVERSALLY	-0.1773244
-4.206596	UNLAWFUL	-0.2977676
-3.428445	UNLESS	-0.362752
-4.206596	UNLIKE	-0.1615432
-4.030505	UNMARRIED	-0.1441616
-4.030505	UNMEANING	-0.1618513
-4.206596	UNNOTICED	-0.1704606
-4.030505	UNPLEASANT	-0.1693885
-3.662529	UNTIL	-0.3153396
-3.729475	UNTILL	-0.5714118
-4.206596	UNTO	-0.6481717
-4.206596	UNTUTORED	-0.1766348
-4.206596	UNUS	-0.1569653
-4.206596	UNWHOLESOME	-0.1569653
-4.030505	UNWILLING	-0.3276134
-2.905567	UP	-0.505493
-2.417721	UPON	-0.6583461
-4.206596	UPWARDS	-0.6496087
-3.466234	US	-0.2558597
-4.507627	USAGES	-0.1622992
-3.076263	USE	-0.4936885
-3.277178	USED	-0.2769184
-3.905566	USEFUL	-0.3837981
-4.030505	USELESS	-0.1739197
-3.905566	USES	-0.288941
-4.030505	USING	-0.2706435
-4.206596	USUAL	-0.2964413
-4.507627	USURPATION	-0.3208796
